term_str,0,1,2,3,4,5,6,7,8,9,10,11,12,13,14,15,16,17,18,19,20,21,22,23,24,25,26,27,28,29,30,31,32,33,34,35,36,37,38,39,40,41,42,43,44,45,46,47,48,49,50,51,52,53,54,55,56,57,58,59,60,61,62,63,64,65,66,67,68,69,70,71,72,73,74,75,76,77,78,79,80,81,82,83,84,85,86,87,88,89,90,91,92,93,94,95,96,97,98,99
the,-0.1469774,0.025323322,-0.015878394,0.15439199,-0.30491987,0.3448243,-0.08391094,0.24385716,-0.20670697,-0.10108862,0.06633489,-0.06734618,0.15854877,0.29617465,-0.084097624,0.2584735,0.08084499,-0.21039528,0.05218085,0.16492862,0.118896686,-0.25954902,-0.14813647,0.38993278,0.20512898,0.10077964,0.033737786,0.08131327,-0.1119454,-0.12550059,-0.0064352755,-0.4600801,-0.24711238,0.0147387395,0.0786515,-0.11812542,0.20416117,-0.06570087,0.03927675,0.07507511,0.009113697,0.16798513,0.3484311,-0.12565628,-0.13250507,0.17569456,-0.04741279,0.10627723,0.0982879,0.103732124,0.08295111,-0.4159104,-0.1748173,0.13170809,0.045470137,-0.2959787,0.06428904,0.14582749,0.0407949,0.12849776,0.1481523,-0.12273561,-0.40886804,0.15244614,0.10719266,-0.11516265,0.18684694,-0.06870729,-0.24024409,-0.12618345,0.21695413,-0.34450382,-0.15302436,-0.26034614,0.051897142,-0.0074820444,0.0035911303,-0.0970314,-0.1936815,-0.030282503,-0.00014481462,0.055345748,-0.14924398,0.0068522515,-0.19516583,0.049660597,-0.24511953,-0.20305337,-2.2120912e-05,0.08096788,-0.01956856,0.3135035,0.0968668,0.09897115,0.10114802,-0.012142506,-0.0041689547,-0.0013801722,-0.07543324,-0.110034406
you,0.15915978,0.003039712,0.14199327,-0.08390352,-0.0007818217,0.1650632,0.13307932,0.10651151,-0.096537404,0.14931376,-0.19771576,-0.045039307,0.12950271,0.28582892,-0.21528833,-0.19496061,-0.09228087,-0.29529414,-0.23340778,-0.016789224,0.16030654,0.038842734,-0.13213006,0.2655871,0.32299823,0.037916455,-0.22920355,0.098121025,-0.23423505,0.069047764,0.021023707,-0.02550715,-0.22033167,0.1254264,0.13706313,0.14835136,-0.09360192,-0.17727502,-0.023483755,-0.22342049,0.12221925,-0.19278038,0.115160085,0.12563254,0.13193908,0.31311172,-0.025004253,-0.08139176,0.31411105,-0.16515097,0.02185949,-0.24726355,0.0067284694,-0.025682496,-0.05823517,-0.16996282,-0.39219454,-0.17074916,-0.04158172,0.24539864,-0.11277538,-0.20606689,-0.32967284,-0.09097211,0.18559055,0.14598736,-0.14789787,-0.15427291,0.010736602,-0.19146264,-0.2907528,-0.2246752,-0.34560317,0.08604841,0.13983138,-0.016218247,0.16252251,-0.049096517,-0.22930537,-0.19463481,0.018119806,-0.22251557,-0.071209654,0.23580721,-0.18521944,0.14452517,-0.3850407,-0.44056785,-0.24102041,0.1148958,-0.061996955,0.08759807,0.16823138,-0.2680381,0.1050663,-0.07119802,0.0721132,-0.038216513,-0.10147785,-0.09974402
i,-0.09574553,0.17313518,0.18212691,0.10125434,0.01387699,-0.005863846,0.047570184,0.24417455,-0.03721984,0.22686635,-0.25277248,0.036791105,0.26414314,0.102526866,-0.049966093,-0.35334563,0.04861735,-0.3199583,-0.15143065,0.113250606,0.12229834,0.16819091,-0.22028057,0.103626154,0.35148862,-0.13304849,-0.121614374,0.16189419,-0.116814956,-0.27266625,-0.16308126,-0.03707972,-0.20736913,0.103948504,0.08285947,0.22025709,-0.027347138,-0.14295432,-0.15949069,-0.101297215,-0.2104549,0.049019527,-0.13261637,0.28365344,0.038597148,0.16120452,0.22631034,-0.00041955346,0.2542916,-0.05140411,-0.11655729,-0.07306346,-0.10593044,-0.28355587,0.010011121,-0.33208883,-0.19114414,-0.30326417,-0.16103274,0.17474203,-0.12445096,-0.34725553,-0.48750162,0.18448891,0.06373396,0.2619991,-0.22331172,0.040868517,-0.10401962,0.0061606094,-0.1998931,-0.22883734,-0.37900648,0.17557788,0.075697705,-0.009340853,0.20538265,-0.019440293,-0.27320278,-0.51328087,-0.20465922,-0.12582065,0.045504857,0.18277107,-0.3071025,0.06225579,-0.15125431,-0.31791607,0.0027862706,0.0622154,-0.0955474,0.14304513,0.3143964,-0.41573983,0.066234775,0.02682455,0.06508217,0.048240684,-0.14449681,-0.29993716
s,-0.18274127,0.22897726,-0.11076429,0.19495142,-0.12136594,-0.12649949,-0.23262273,-0.08382163,-0.20608771,0.22327995,-0.21512733,0.030131929,-0.08221065,-0.010845354,0.021226265,-0.1923317,0.16245729,0.058054324,0.055163816,0.17504731,-0.13480112,-0.20098576,-0.117400795,0.14996044,0.40804163,-0.03299008,-0.22692105,-0.2552705,-0.21210054,0.11795323,-0.07339439,-0.034076612,-0.17504399,0.10223693,-0.21718822,0.36562723,0.3482389,-0.48754713,0.10988795,0.2980442,0.14698194,-0.02428008,0.23085624,-0.104886,0.15215507,0.0016855188,0.04025944,0.06953619,0.12732512,-0.13319658,-0.17199793,-0.34333968,0.002319883,0.11723346,0.13825196,0.294049,-0.13132098,0.16242604,-0.36693797,0.2673361,0.085039616,0.18720101,-0.3256133,-0.046009373,0.07232699,0.08187736,-0.07859735,-0.12355707,-0.12010602,0.043611534,-0.10590756,-0.17688617,-0.276171,-0.028880766,0.06913898,-0.03984532,0.0006134883,0.071024746,-0.17628786,-0.40348724,-0.25924093,0.22261022,0.16420762,-0.0383318,-0.26538318,-0.058867075,-0.26723558,-0.17755306,-0.14043927,-0.14061554,0.04059676,0.012933127,0.0683139,0.039012,0.12449284,0.28036785,-0.00096117187,-0.23553245,-0.3280345,-0.042797573
to,0.14852048,0.14469461,-0.010892928,0.14582856,-0.2540881,0.1241796,0.015814595,0.09473288,-0.08629755,-0.08385735,-0.20033327,-0.0731703,0.10444799,0.1293929,-0.32661045,-0.095375635,0.17919521,-0.22646543,-0.21674071,0.15462546,0.22636518,-0.052254736,-0.10016764,0.19763353,0.19922298,0.00042971814,-0.015133797,0.1638431,-0.30765474,-0.15543714,-0.13569002,-0.0014699257,-0.12043358,-0.048732843,0.026259197,0.07229593,0.03484857,-0.08058899,-0.076899454,0.074009284,0.051793125,-0.13748035,0.20659971,0.0823779,-0.042633332,0.1006948,0.0808831,0.14008994,0.11569594,-0.0053372453,-0.0913545,-0.23545562,-0.11771131,-0.036398783,0.07809076,-0.18427272,-0.13232498,0.009362051,-0.106623165,0.058148164,-0.062290028,-0.24614745,-0.34061956,0.103795625,-0.039881535,0.075351745,-0.121011496,0.014939773,-0.20396008,0.08342505,-0.11123828,-0.12471523,-0.15686552,0.0059373784,-0.015084367,-0.10192837,0.057585735,0.08277708,-0.2066697,-0.44561747,-0.15268178,0.116983645,-0.0468298,0.20885204,-0.23329902,0.0009962962,-0.24085638,-0.3091767,0.014975941,0.062203873,0.022576878,0.18035515,0.23738055,-0.19360651,0.007438963,0.058009617,0.03218154,0.037078746,0.06811203,-0.19311777
it,-0.2546881,0.08114057,-0.018685056,0.1498339,-0.11262295,0.055005144,-0.13683248,0.08424474,-0.17037748,0.1934841,-0.035624675,0.0633152,0.19904679,0.105826765,0.055029117,-0.219869,0.093750164,-0.20145863,-0.21131365,0.0095616495,0.03200142,-0.05133742,-0.14211877,0.16798218,0.3200312,-0.11849707,-0.06861326,-0.1235979,-0.0014608584,0.099030286,-0.07656753,-0.30511865,-0.0991064,0.039384138,-0.0057368875,0.18037236,0.030784331,-0.3412758,0.10133363,0.071527705,0.06492807,-0.045697924,0.11692083,-0.08544567,0.09722497,-0.023069752,0.084238015,-0.014414125,0.22960138,-0.030559776,-0.045051366,-0.3504399,-0.027249325,0.0010417997,0.2521508,0.017929932,0.023992727,-0.054639556,-0.08923486,0.29034093,-0.08785674,-0.23810497,-0.25708073,-0.09052567,0.14347099,0.0052391165,0.005081706,-0.09237656,0.015621891,-0.14005554,0.107889704,-0.27015257,-0.32791632,-0.17617609,0.025755174,-0.11659146,0.16200633,-0.08583839,-0.20111416,-0.21430758,-0.17541423,0.045555413,-0.11976725,-0.06219368,-0.23671517,0.12129557,-0.21778072,-0.35372248,-0.08597318,0.0702109,0.05514921,0.16351396,0.097194746,0.0028774757,-0.10813687,-0.04925651,0.14688872,-0.036866896,-0.09561264,-0.059381217
a,-0.22343938,0.03947314,0.0870972,-0.07444263,-0.004488446,0.12462955,-0.10951303,0.11252173,-0.078552745,0.24227893,0.031190064,-0.01726996,0.11691716,0.044086535,-0.0342814,-0.109786175,0.11682472,-0.1322174,-0.11985828,0.042258047,0.106486015,-0.0277414,-0.22916406,0.18884693,0.3384879,-0.0277802,-0.102155395,0.05559062,-0.12039264,-0.042484004,-0.07223944,-0.28017098,-0.04716434,0.03900727,-0.17706889,0.33973464,0.12697336,-0.30504885,0.08739169,0.06518201,-0.035687104,0.17069994,0.20267914,-0.023055168,0.021803476,0.07957045,0.060213644,0.018805342,0.27560517,0.04021316,-0.024372332,-0.29911497,-0.11189212,0.02216144,0.11244984,-0.005787995,0.016916107,-0.002334801,-0.1582008,0.19715266,-0.12507272,-0.0418119,-0.37222585,-0.051815644,0.101870246,0.12909739,-0.0618034,0.0948188,-0.08959048,-0.1313966,0.100100294,-0.243817,-0.2089265,-0.18322052,0.08026402,-0.05644838,0.11160128,-0.10487145,-0.24672052,-0.06668582,-0.23041357,-0.11014545,-0.096614674,-0.041470412,-0.3665775,-0.029286867,-0.25527704,-0.23671761,-0.16429804,0.083454445,-0.04759002,0.09749563,0.038421754,-0.021622876,0.023767205,-0.061439425,0.15311965,-0.08507548,-0.17876874,-0.13785836
that,-0.19370568,0.15058942,0.0193554,0.099893734,-0.15998559,0.13833368,-0.036509912,0.07562954,-0.10642034,0.14845239,-0.06072655,0.01571594,0.19181596,0.16324782,-0.012277789,-0.10822399,0.11143816,-0.19848694,-0.1465076,0.015921425,0.0723621,0.017053273,-0.16302817,0.21864246,0.32749772,-0.14650558,-0.0872712,-0.08026161,-0.07371143,0.04714083,0.003254755,-0.27357906,-0.049346652,0.08494482,-0.0033304552,0.21066645,0.1006744,-0.20964281,0.100632444,0.039605882,0.04065903,0.034375302,0.22850482,-0.013813839,0.052190457,0.018289292,0.0654743,0.033408925,0.23742087,0.0037174108,0.027013186,-0.3932015,-0.076725684,0.008514143,0.16039024,-0.06931962,0.008418879,0.0013298714,-0.0595216,0.21389152,-0.040237714,-0.23768362,-0.23152205,-0.06650974,0.12463924,0.035926163,0.019218277,-0.012210701,-0.06531411,-0.10364803,0.061823264,-0.21782684,-0.3629486,-0.11591202,0.098219976,-0.09198214,0.12325827,0.0103267655,-0.19957203,-0.14226547,-0.097561315,-0.01182567,-0.12869252,-0.04953536,-0.3192967,0.06706266,-0.33211413,-0.30153963,-0.09141994,0.037339017,-0.09181203,0.053499334,0.03608754,-0.032637857,-0.045581467,-0.06866618,0.16085866,-0.010948419,-0.12898466,-0.055768177
is,0.013352078,0.13563052,-0.06937773,0.21046376,-0.058794692,0.08373226,0.0040809736,0.06032265,-0.22575255,0.19001064,-0.21749789,0.018414188,-0.08315532,0.026523432,0.04901694,-0.0009588099,-0.05006267,-0.09999231,0.0019850915,0.35239744,-0.23458946,-0.20087615,-0.116790354,0.16329822,0.34825194,-0.030317899,0.08311198,-0.045399703,-0.094820224,-0.19062182,-0.06124122,-0.11612808,-0.11676083,0.06811181,-0.06962926,0.2002929,0.2988773,-0.2780822,0.15578707,0.16292696,0.10842899,-0.050016694,0.28868985,-0.16939905,0.06687843,-0.06299121,-0.041789092,-0.003189216,0.19293416,-0.14746952,0.087105766,-0.35499197,-0.015967365,0.16364622,0.11045106,0.115452655,-0.03778564,9.943235e-05,-0.19999418,0.14999047,0.10537834,0.060540035,-0.4594401,-0.019632464,0.12099132,-0.010915953,0.031933922,0.025605435,-0.03160928,-0.078295864,0.081278056,-0.17857195,-0.23444809,-0.19870014,0.17598069,-0.01414695,0.10170891,0.08848825,-0.19688892,-0.19824198,-0.13964923,0.12796067,0.043339893,-0.067880765,-0.2997234,0.00964945,-0.35097492,-0.340754,-0.14725706,-0.06140478,-0.07697695,0.13346177,0.09505216,0.14037216,0.038422126,0.1525543,0.08655929,-0.18340278,-0.31029898,-0.08878886
nt,-0.2419261,-0.030422654,-0.12683916,0.38302848,-0.13383183,0.08783537,0.0077823363,-0.06773489,-0.24444301,-0.011131692,-0.18671004,-0.047422413,0.15158959,0.4717282,-0.2363881,-0.1701701,0.0037472863,-0.082540795,-0.37679687,0.21843943,0.24390587,-0.10570685,-0.0002722695,-0.063574836,0.07827315,0.10813379,-0.11798632,-0.039941385,-0.235351,0.11650913,-0.02584839,-0.0227022,-0.21156017,0.13589711,0.008789625,0.268788,-0.31723684,-0.34635618,-0.04220174,0.09733291,0.2017384,-0.15036741,0.44670936,0.025004901,-0.025617698,-0.10516156,0.1826912,-0.08548592,0.36829224,-0.21018933,-0.2759782,-0.4711699,0.04534531,0.02556052,0.06531439,-0.16299918,-0.11615598,0.12679926,0.08285712,0.20103349,-0.19521126,-0.51838005,-0.12308096,-0.20984325,0.2125726,0.060490437,0.13366611,-0.21194232,0.26842782,-0.21411484,-0.22913678,-0.3222106,-0.37691763,0.03556042,-0.06082079,-0.22853345,-0.010996842,0.2398502,-0.39724496,-0.24307737,-0.052403502,0.08802632,0.05900031,0.08339772,-0.1590793,0.23655514,-0.33489704,-0.45280808,-0.29558325,0.12878858,0.053033993,-0.010561274,-0.06805487,-0.17029858,0.11336627,0.20164113,0.0071891844,-0.1553446,0.08631289,-0.052194376
of,0.0163642,0.20920503,0.0441308,0.17280233,-0.4319862,0.3699575,0.053969067,0.25500238,-0.1371682,-0.048567925,-0.104761,0.03751568,-0.008529794,0.12450283,-0.13183208,0.18825544,0.10520609,-0.21946134,-0.0978663,0.26036957,0.013529834,-0.24985345,-0.06691942,0.30886462,0.2878348,-0.081433214,0.016984735,0.07140942,-0.17649439,-0.24111949,-0.022458345,-0.28690726,-0.09730393,-0.02519716,0.017933901,-0.014507567,0.2858295,-0.035122637,0.13194057,0.08159917,-0.026882032,0.03931836,0.29602233,-0.035690866,-0.08330607,-0.01185898,-0.03806877,0.07885502,0.06427118,0.020831846,0.10582846,-0.4068626,-0.23361205,0.14179693,0.007023366,-0.14343876,0.013488546,0.16369869,0.018871343,0.07578521,0.10610746,-0.11466753,-0.36363274,0.12589538,0.06315659,-0.121674925,0.12749645,0.052266356,-0.3310822,-0.06579664,0.12025501,-0.1672569,-0.16405867,-0.18026768,0.09864777,-0.16791794,0.047460545,0.06620163,-0.16644418,-0.15313078,0.016404523,0.24684393,-0.10260948,0.029347992,-0.2433926,-0.016861737,-0.27362606,-0.117850944,0.05078642,0.007372318,-0.20588471,0.14551505,0.18285097,0.030220417,-0.019963078,-0.02761922,0.086073466,0.10351227,-0.059286006,-0.10528521
and,-0.071677096,0.14498858,-0.007666628,0.057122424,-0.3818466,0.25646558,-0.07204239,0.2613772,-0.16462229,-0.09461155,-0.110151656,-0.061856493,0.09537509,0.110893846,-0.25938424,0.03932681,0.16826294,-0.15178059,-0.13405088,0.16724308,0.07531561,-0.1866539,-0.09113531,0.22684039,0.16021866,0.06651335,-0.083818525,0.14159402,-0.17480232,-0.19156069,-0.09784243,-0.14773706,-0.09251761,-0.008683245,0.01663781,0.05801559,0.18598433,-0.081458785,0.011377632,0.05770755,0.0029640053,-0.022964668,0.28646028,-0.018163674,-0.10393052,0.13314554,0.042589914,0.06819739,-0.0035703199,0.16023535,-0.08631201,-0.3667277,-0.20204405,0.071788445,0.06453551,-0.10229019,-0.003375542,0.15403621,-0.13678302,0.10999272,-0.029742204,-0.08849592,-0.3189343,0.10366165,0.021472748,0.036181446,-0.029101154,-0.043852948,-0.29818714,-0.009015502,0.033957236,-0.14909317,-0.12800649,-0.07572294,-0.04727418,-0.19117516,0.0072844718,0.006553669,-0.15361428,-0.30666143,-0.07916968,0.21564306,-0.06268708,0.10685369,-0.24263524,-0.01909738,-0.2003634,-0.18034203,-0.01938537,0.04175012,-0.15952343,0.15724604,0.104492515,-0.056867544,0.033085253,-0.011668593,0.023343172,0.038831264,0.0072986097,-0.072598
we,0.1334387,-0.068820365,0.19432367,0.016230645,-0.2122611,0.3551601,0.11022459,0.35281354,-0.32264733,-0.16394928,-0.048257627,-0.06999788,0.15267947,0.36760843,-0.18856129,-0.27560556,-0.08338613,-0.26159337,-0.24994843,0.11207032,0.18083848,-0.22189972,0.14288865,0.20208694,0.030475928,0.14092162,-0.1805893,0.16860035,-0.20307362,-0.056832857,0.09260411,-0.07867598,-0.1854898,0.11416252,0.15108876,0.052905492,-0.18075682,-0.22295941,-0.11000941,-0.172299,0.18001248,-0.080357514,0.2504156,-0.07925021,0.2341417,0.26133528,0.0990579,-0.01790208,0.15638143,0.0303158,-0.21087664,-0.3206148,-0.113693774,0.13305357,0.12290127,-0.27885938,-0.3051663,-0.020384815,-0.14581142,0.2014382,-0.1493349,-0.14762305,-0.27480027,0.12805739,0.18860194,0.007831236,-0.06343666,-0.12694636,0.017433261,-0.23654814,-0.25238362,-0.25110537,-0.0996658,-0.042458072,0.053257044,-0.057581887,0.080675386,-0.08334464,-0.2753839,-0.18460569,0.05193296,0.22618246,-0.06869619,0.26660442,-0.1698096,0.0035141257,-0.29347605,-0.4669306,-0.1172827,0.12099427,-0.013212522,0.23571534,0.082846664,-0.19691461,0.18874712,-0.04802135,-0.019378932,-0.0929345,0.046640582,-0.11618931
do,0.22950187,-0.002463918,-0.026722305,0.23622423,0.081105694,0.07231611,0.05442784,-0.06829203,-0.35944384,0.098935634,-0.28415966,-0.0033293294,0.21748777,0.37706468,-0.100599654,-0.2139856,-0.050930843,-0.26913172,-0.443683,0.2084299,-0.06332653,-0.22593802,0.029885042,0.20745187,0.20774376,-0.07605424,0.0333408,0.02907008,-0.049666114,-0.14237544,-0.08212732,-0.00040837892,-0.25807208,0.037404995,0.07690087,0.23239094,-0.010314139,-0.19697423,-0.0015829615,0.06736554,0.16833727,-0.2689333,0.17880523,0.08209212,0.03809027,0.2752929,0.0026308468,0.13398737,0.18782127,-0.09995086,-0.08133592,-0.37879148,0.09536622,0.18447873,0.15142474,-0.17731208,-0.2978504,-0.12869069,-0.27070487,0.02031399,-0.13546677,-0.35252216,-0.47034022,-0.17664902,0.037430115,-0.03736211,0.057780143,-0.24180478,0.2255033,-0.014440772,-0.05378956,-0.26471192,-0.3521515,-0.016949326,-0.0043622344,0.010666855,0.13518178,0.13008106,-0.11171899,-0.19116427,0.14283247,-0.10558481,-0.002900243,0.19699265,-0.2223494,0.23476388,-0.2083648,-0.3802272,-0.06583131,0.01062517,-0.07862607,0.10953145,0.24009226,-0.037384447,0.049444202,0.16871624,0.19126147,-0.06666551,-0.18263872,-0.114715055
this,-0.044819355,-0.004264562,-0.00038818008,0.004649576,-0.17762637,0.032123867,-0.020263467,0.17239286,-0.21311383,-0.017050594,-0.16333929,-0.069450065,0.18494141,0.25967857,0.0073184785,0.009003401,-0.021820482,-0.1414582,-0.15494673,0.13068017,0.062678546,0.038656108,-0.041852705,0.111986004,0.27559325,0.017172113,-0.064905494,0.06909822,-0.15460782,-0.029311955,-0.08582255,-0.263681,-0.105092,0.0513708,0.004118709,0.026561089,-0.03754584,-0.23705752,0.12306797,0.15518743,0.02085641,0.039637193,0.30773047,-0.14575937,-0.0055450723,-0.13041942,0.11460241,0.045787804,0.27938393,-0.080956265,-0.029054375,-0.43711966,-0.14025903,0.024412192,0.10330279,-0.21618453,0.10259774,0.046624348,-0.061019365,0.25290138,0.037615325,-0.21237363,-0.4162646,-0.003241563,0.19811085,0.00070892886,0.131229,0.01645892,0.03550486,-0.14666869,0.13570362,-0.14841835,-0.22197108,-0.15447187,0.18633156,-0.21440323,0.14547655,-0.07275453,-0.2862607,-0.1427681,-0.07090995,-0.09295548,-0.0690052,-0.07272433,-0.29560238,0.121043265,-0.27101877,-0.38636127,-0.0707171,0.12908319,-0.05607802,0.18333282,0.0024263915,0.012991076,-0.062291436,0.01447413,0.07973763,0.00021849883,-0.049666565,-0.036003597
what,0.011353318,-0.0051248334,-0.074775144,0.14568935,0.0029205626,-0.025955886,0.10142145,-0.10299307,-0.08859077,0.16924162,-0.16002144,-0.042065006,0.12641382,0.25815764,-0.16283102,-0.11302279,0.14787725,-0.18301846,-0.19274706,0.024144365,0.23491484,0.06573416,-0.09532126,0.19805339,0.3086265,-0.14014626,-0.093059935,-0.11615675,-0.2583806,0.2179501,-0.031160505,-0.25819746,-0.031436887,0.04219022,0.03853833,0.27218652,-0.042315874,-0.31043613,0.18838339,0.025908584,0.14145897,-0.051773243,0.305226,0.07368547,0.012861426,0.04150973,-0.062315915,0.13552976,0.38422728,-0.2690119,-0.006320692,-0.3544143,0.11967199,0.049383402,0.13748935,-0.07962293,-0.05310672,0.018852621,0.17437795,0.23299308,-0.057632815,-0.36248794,-0.27185282,-0.24459562,0.23339368,0.08555128,0.05784135,-0.113332905,0.20356523,-0.02629954,-0.15237908,-0.2024538,-0.36806658,-0.10205243,0.0726368,-0.027325252,0.10202157,0.078749985,-0.29521206,-0.094360076,-0.09887649,-0.17432517,-0.12283088,0.0009146241,-0.2490962,0.14071463,-0.33835727,-0.47454852,-0.24957263,0.054689366,0.055130456,-0.06717418,-0.024302045,-0.15185174,0.066549584,0.03506078,0.16189404,-0.050959505,-0.07921688,-0.039992824
in,-0.0026074778,0.15882514,0.030120516,0.07676539,-0.3620957,0.317385,-0.038660143,0.26550132,-0.11452019,0.03378492,-0.034513127,-0.024518859,0.022662451,0.09326443,-0.15003192,-0.0023537627,0.17219844,-0.19612387,-0.0712488,0.22396176,0.11258124,-0.15095715,-0.07393552,0.25490937,0.20982352,0.020431269,-0.004844809,0.08269676,-0.17941451,-0.20253278,-0.0481766,-0.23536065,-0.13382083,-0.010465606,-0.024015836,0.100727834,0.22742645,-0.07898954,0.10263799,0.038594358,-0.037999857,0.0060135927,0.24570665,-0.013701316,-0.12541685,0.07829862,0.0045243436,0.048184868,0.118666224,0.060948107,-0.005422103,-0.3067246,-0.19382748,0.06375394,0.048186123,-0.15337884,0.008496475,0.1174801,0.021168113,0.12467649,0.022183005,-0.10951294,-0.33302742,0.07859677,0.07844887,0.021392135,-0.06449595,0.061031256,-0.24649452,-0.038433317,0.07590796,-0.1346584,-0.1261132,-0.15927257,0.06734494,-0.09186814,0.01672123,0.04952123,-0.14682384,-0.24242891,-0.1127221,0.18162313,-0.13911393,0.071058586,-0.27105877,-0.088051185,-0.23250534,-0.20814739,-0.06350957,0.039534196,-0.17230922,0.1153253,0.17130347,-0.024577953,0.0076498846,-0.04029062,0.068552695,-0.00648875,-0.05853252,-0.13699746
be,-0.06873619,-0.0014155585,0.059254106,-0.12556468,-0.09399438,0.2567409,0.030769825,0.24070123,-0.27330205,-0.005062309,-0.25731438,0.022101229,0.25804713,0.29954466,-0.16942668,0.010496504,0.08286254,-0.22632551,-0.36223117,0.15453926,-0.002125343,-0.1460658,0.04437596,0.1474056,0.2682445,-0.010895947,-0.04195593,0.15284713,-0.11062456,-0.19213176,0.0032226767,-0.028083041,-0.24273853,0.0784274,0.15097374,0.21046507,-0.09803731,-0.2102806,-0.048533306,-0.028915409,0.022241564,-0.041449588,0.1552675,-0.07398158,-0.037156366,0.18628292,0.07773225,-0.08198728,0.21031481,0.2030692,-0.05035411,-0.29621473,-0.04873192,0.006047098,0.11379707,-0.1309479,-0.14370905,-0.045640957,-0.20449792,0.13317487,-0.1487023,-0.20570467,-0.24362944,0.040114958,0.1200298,0.18108931,0.017588764,-0.09270015,-0.10833905,-0.12153784,-0.0886565,-0.15609503,-0.23269992,-0.1557804,-0.0023193986,-0.23884906,0.1106958,-0.025343446,-0.16864988,-0.1815976,-0.12956566,-0.03315994,-0.15189132,0.26378325,-0.10276732,0.06913996,-0.38052815,-0.2314908,-0.024479749,0.17665821,0.016983626,0.14815257,0.090554595,-0.1672714,0.1298317,-0.13786055,0.06778453,-0.13717045,0.0005386928,-0.10913238
me,-0.11759818,0.0023060662,-0.0748298,-0.0057322113,-0.13284613,-0.043208167,-0.21643686,-0.040383115,-0.12926511,0.3073414,-0.28961217,0.007334595,0.24244303,0.13611902,-0.2607574,-0.057331886,0.065967515,-0.18690659,-0.2827256,0.0075061726,0.058831062,-0.05262475,-0.23173034,0.15682015,0.3692869,0.09673019,-0.25410816,0.032453757,-0.033167515,0.042444948,-0.16468315,-0.042975336,-0.22494939,0.040650345,-0.12512735,0.1702652,0.113278806,-0.12132881,0.043079227,0.0091259545,-0.060340647,-0.25528452,0.034149725,0.11540002,-0.026638882,0.21270004,0.049006656,-0.02344842,0.12841226,-0.12269659,-0.0111154625,-0.28850845,-0.14693725,0.007364173,-0.038426653,0.05682229,-0.25861156,-0.17416047,-0.15478694,0.1267744,-0.15886042,-0.22054982,-0.2979438,-0.11456383,0.115905285,0.16412969,-0.1346457,-0.18447962,-0.14783177,0.0038986139,-0.12968667,-0.14434847,-0.30999166,0.11357817,-0.17433788,-0.23442468,0.066474125,0.035099365,-0.06783033,-0.3600226,-0.1370126,-0.26916158,-0.09513651,0.28071848,-0.17319234,0.23961139,-0.07398489,-0.23754857,-0.2957811,0.07820289,-0.1383104,0.04654547,0.2666612,-0.23069179,-0.041724827,0.052880693,0.07894355,0.1342649,-0.106185906,-0.26473057
for,0.05535833,0.08723721,0.08640822,-0.026746104,-0.21295148,0.14193349,-0.061067782,0.12895025,-0.15434417,0.09944128,-0.14976348,0.022905765,0.062003803,0.111026175,-0.25896883,-0.09400113,0.14936309,-0.20458592,-0.22108239,0.12953524,0.1274535,-0.019471526,-0.094660886,0.18534361,0.2363556,-0.03942052,-0.122078985,0.119266994,-0.2095176,-0.19640414,-0.11207609,-0.09460779,-0.003926614,0.03697425,-0.10285342,0.17118742,0.09896449,-0.12054196,0.08899202,0.066464946,-0.09551584,-0.028278971,0.203523,0.004617223,-0.048978906,0.03384489,0.0765501,0.11036288,0.08806834,0.0009246111,-0.0039177365,-0.32658735,-0.11626156,0.018619554,0.12758881,-0.08138932,-0.05674835,-0.0549663,-0.052285932,0.12068796,-0.036791384,-0.04252715,-0.3633245,0.060511667,0.03526926,0.13268057,-0.08997139,0.07751709,-0.12751164,-0.034346424,0.07273509,-0.09499507,-0.09588351,-0.09876716,0.06787524,-0.14413312,0.106474064,0.06099575,-0.16087915,-0.22903924,-0.068527594,-0.012203924,-0.1475351,0.08999457,-0.30470482,-0.0011175812,-0.14878754,-0.2953483,-0.09012799,0.080974594,-0.22720918,0.08013966,0.097366296,-0.13640141,0.016976152,-0.08109055,0.05525121,0.07193265,-0.017799499,-0.17451034
are,0.40194798,0.0016025235,-0.13577352,0.002195314,-0.07248032,0.14008732,0.05850077,-0.014350013,-0.10443523,0.049433835,-0.15011558,-0.1437765,-0.029654691,0.24641933,-0.13406517,0.06378238,0.21589309,-0.13475832,-0.026856221,0.24654803,0.063462324,-0.21630274,0.0049774023,0.42749792,0.22300884,-0.06448138,0.06442957,-0.044355217,-0.30292273,-0.093762204,0.015399696,-0.2332855,-0.2397458,-0.09198747,0.0074497256,0.23937985,0.30747196,-0.17521223,0.20523693,0.07100366,0.1596888,0.010259729,0.3958118,-0.03660336,-0.15850484,0.29096514,-0.24285075,0.2984173,0.24122575,-0.023087906,0.09960398,-0.22145718,0.0744122,0.28462988,0.09905643,-0.023536157,-0.14349474,0.038694143,-0.024000153,0.027471876,0.15505302,0.013890534,-0.46731243,-0.071470104,0.21055432,-0.035913445,0.037148673,-0.08753511,-0.035473507,0.048097834,0.009942231,-0.06345737,-0.1463578,-0.21874814,0.090323016,0.105795406,-0.0761567,0.047054343,-0.17424731,-0.15117694,-0.03806688,-0.071849614,-0.2614362,0.17882445,-0.23559244,0.013385379,-0.34432632,-0.26005015,-0.15554588,0.057744212,0.037435934,0.036486004,0.20330107,0.025070459,0.15622665,0.05612346,0.23920427,-0.091842264,-0.20909187,-0.25985375
re,0.45797262,-0.15701954,-0.09448988,-0.12723283,-0.082236506,0.17322706,0.048791803,0.037928093,-0.22702593,-0.068316475,-0.06569612,0.015519095,0.006578519,0.3046556,-0.22590531,-0.12555599,0.43913087,-0.11538992,-0.1616085,0.1989351,0.29170963,-0.19596756,0.04125289,0.36801434,0.24688102,-0.12009193,-0.012728105,-0.0036984228,-0.35238728,0.03173752,0.106222026,-0.24714747,-0.16515136,-0.19212277,-0.1894695,0.2675405,0.2663597,-0.2701999,0.196488,0.11055679,0.11703921,0.04336178,0.36649415,-0.058722977,-0.05063163,0.2517558,-0.24545252,0.41298175,0.2953914,-0.053643767,-0.0905261,-0.2652539,0.12806803,0.2191788,0.18090786,0.025956977,-0.2528874,0.011834189,0.04887535,0.026121346,-0.006379243,-0.021225179,-0.3752873,-0.1458872,0.25698712,0.06440962,-0.032648195,-0.11772128,0.061840408,0.23898454,-0.18358591,0.0761285,0.020137753,-0.18628024,-0.14876255,0.11792944,-0.12817764,-0.11374103,-0.1348969,-0.15959932,-0.11003887,-0.14176524,-0.24327375,0.29815874,-0.16785116,0.03325069,-0.2651128,-0.306005,-0.17903079,0.13118216,-0.013390158,0.032285307,0.047431044,-0.081254706,0.28467697,0.017673932,0.10120937,-0.13634951,-0.095127314,-0.31111637
ll,0.07537116,-0.07183795,-0.131711,0.12038584,-0.17943451,0.11272885,-0.102167875,0.03676992,-0.29901472,-0.06971317,-0.15061624,0.12733169,0.12913826,0.26603723,-0.38108903,-0.18519226,0.23874716,-0.018504124,-0.42794722,0.11250281,0.1292965,-0.2523305,-0.086343,0.13413645,0.1825298,0.018328633,-0.085362904,0.2332112,-0.27210933,-0.1558524,-0.12990445,-0.041709416,-0.0637247,-0.17512925,-0.116179496,0.19950072,0.048825633,-0.18283506,0.0073305927,0.22345726,-0.006620317,-0.1432402,0.26175278,0.0076192752,-0.028066171,0.1204143,0.090219125,0.1428411,0.0364017,0.10718906,-0.26765245,-0.4863353,-0.013941262,0.078758165,0.029307624,0.008011661,-0.16593441,0.03946352,-0.2389937,0.016061716,-0.25271896,-0.018424584,-0.4396329,-0.15510078,-0.12693128,0.027416784,0.012846214,-0.14819919,-0.21977256,0.24752434,-0.07348497,-0.14801112,-0.13687332,-0.009139676,-0.22448689,-0.1599509,-0.14931233,-0.009136574,-0.106116086,-0.35963577,-0.021363618,-0.026624905,-0.019738382,0.25052258,-0.10152479,0.16850664,-0.00090151274,-0.10002699,0.029496841,0.04336497,-0.19577348,0.17513263,0.04751314,-0.12709619,0.11320031,0.17213348,-0.004345222,-0.08643823,-0.012913296,-0.10197719
your,-0.106678665,0.0070650144,0.0069987224,0.081288,-0.09437724,-0.0036577736,-0.08501076,0.049772255,-0.16143052,0.08257257,-0.17531933,-0.07663683,0.21417402,0.20725408,-0.15582412,-0.108275056,0.07483769,-0.19838895,-0.16115125,-0.0024607491,0.06730296,-0.046579555,-0.17971924,0.19747476,0.28742206,0.033931743,-0.2163906,-0.012339461,-0.12773107,-0.038644105,-0.18499617,-0.17811543,-0.18208793,0.0397756,0.011952495,0.11700195,0.09218823,-0.15897246,-0.012574283,0.016773727,0.0049066767,-0.07639709,0.18458584,0.031112324,0.008877976,0.1421447,0.07659068,0.11378582,0.14510176,0.004231593,-0.050807737,-0.31684107,-0.040715165,0.0019082195,0.017770557,-0.11031855,-0.10758029,-0.054537922,-0.11454973,0.15925236,-0.042453416,-0.11582547,-0.38770205,-0.051258482,0.094742246,0.050105706,-0.0068914574,-0.14448138,-0.15789567,-0.008229804,-0.054728266,-0.19934624,-0.334316,-0.02126098,-0.02514291,-0.098870754,0.044337116,-0.07902817,-0.094525605,-0.29410592,-0.056267593,-0.12778799,-0.035800558,0.12319777,-0.23905124,0.17153786,-0.10692472,-0.26649472,-0.094063565,0.062815964,-0.06698182,0.14892805,0.13200822,-0.12642059,-0.012648471,0.020874362,0.07598553,0.060657248,-0.09650772,-0.12687227
my,-0.277268,0.13329355,0.07345783,0.138973,-0.14966853,0.06437004,-0.12866725,0.11762294,-0.031641472,0.21733569,-0.10029432,0.017631259,0.14671077,0.032571565,-0.15676469,-0.02331039,0.17507648,-0.2000198,-0.09523221,0.05888634,0.065275244,0.06616304,-0.3390305,0.18825224,0.34086177,-0.044821944,-0.12736963,0.05592293,-0.0032387103,-0.21563458,-0.15886237,-0.25245503,-0.039664134,0.050956536,-0.04441705,0.16329873,0.18831432,-0.1223431,0.08908168,-0.0013970769,-0.17652892,0.030913752,0.02590948,0.051786948,-0.06697119,0.10300408,0.17323151,0.011209174,0.16644475,-0.03662799,0.079595305,-0.23789863,-0.15555875,-0.11456337,0.011169108,-0.07296289,0.029553728,-0.042926088,-0.006776533,0.11972145,-0.07703247,-0.19730376,-0.4015596,0.03151549,0.0053665177,0.15337475,-0.11978732,0.09030409,-0.23773305,-0.015849758,0.11101965,-0.18497072,-0.30584192,-0.086550504,0.0017778253,-0.122646965,0.09100433,-0.04590506,-0.13907492,-0.34262526,-0.27458623,-0.08290381,-0.047855984,0.0018536788,-0.35006353,0.015155233,-0.08603956,-0.26311463,-0.12997201,-0.0039633336,-0.21156389,0.09345184,0.15328649,-0.15726404,-0.028220087,-0.04994175,0.022814147,0.08180906,-0.18561998,-0.13542858
have,0.07040697,-0.079229295,0.06660125,0.042663228,-0.112687595,0.1372714,-0.004258065,0.09180017,-0.37420276,0.052888688,-0.16465561,0.07981099,0.24428624,0.32152405,-0.2963007,-0.09291455,0.1556971,-0.21110828,-0.4044225,0.23092343,0.062806435,-0.22279447,0.105815955,0.09848882,0.12594616,-0.0147212325,-0.10721137,0.09949605,-0.1563336,-0.2155263,0.0053703585,-0.060493745,-0.0277051,-0.0019336271,0.00940786,0.21300349,-0.019428505,-0.20941746,-0.021221261,0.119327225,0.011934016,-0.056941997,0.24229042,0.015052523,0.025038654,0.13174275,0.09605458,0.06958577,0.055548944,0.041112695,-0.071092844,-0.44117808,-0.021937292,0.0894464,0.21240214,-0.124727584,-0.094084345,0.04060731,-0.14989449,0.08940885,-0.07328767,-0.14119524,-0.39891237,-0.028609252,0.012854584,0.15713224,0.053261515,-0.05595641,-0.018877696,-0.015803773,-0.016670903,-0.14321215,-0.11632169,-0.09142746,-0.0002288198,-0.15578611,0.0970455,0.11133319,-0.06384238,-0.16870542,0.0385893,-0.024293272,-0.080650836,0.16932233,-0.29669055,0.035480246,-0.14377435,-0.30597043,-0.10054087,0.07649277,-0.25891852,0.03326213,-0.014932348,-0.2076029,0.07074681,0.019661915,-0.00047514655,-0.037030105,0.03148489,-0.09426791
m,0.11059504,-0.041472778,0.02918101,0.15903814,0.009872618,-0.13761556,-0.08726247,-0.1004348,-0.056173585,0.34389085,-0.11266509,0.2762068,-0.050391056,0.20359841,-0.3272108,-0.24294405,0.43159565,-0.21157292,-0.1969555,0.18633018,0.1780815,0.15305544,-0.3172141,0.1840303,0.57084525,-0.21196574,-0.017260186,-0.012139185,-0.19792783,-0.31572574,-0.16899121,-0.18838258,-0.0667458,-0.058430634,-0.07147272,0.14419451,0.06984972,-0.12628146,0.02254149,0.28436187,-0.24134405,-0.07500659,0.035439868,0.1597805,-0.067537285,0.0012597699,0.26430956,0.17341502,0.27274442,-0.19647244,-0.034351487,-0.13155507,0.19445647,-0.2453376,-0.03800907,-0.0429616,-0.24684556,-0.35806647,0.21636306,0.16740926,0.0037598233,0.009094129,-0.679161,-0.09507403,-0.12780492,0.2435809,-0.13733055,0.10580902,-0.15761748,0.32962522,-0.011228622,-0.019839665,-0.21237457,-0.12085465,0.06478898,0.11485393,-0.07884014,-0.023266846,-0.06417399,-0.5945632,-0.39229935,-0.3914786,0.03429212,0.20746066,-0.1689079,0.12017816,0.08310701,-0.35625204,-0.07912045,0.0036102138,-0.14347441,0.23586036,0.29480413,-0.3299445,-0.00085601566,0.04560748,-0.12779924,-0.07034325,-0.2102102,-0.37151632
there,0.11829876,0.06813727,-0.08579488,0.031476494,-0.3481137,0.13894282,-0.077636234,0.2439294,-0.07574017,0.098653,-0.11204498,-0.06414537,0.09483146,0.051606394,-0.047821727,-0.17612185,0.1324969,-0.10543387,-0.052400645,-0.026671851,0.13319248,-0.07066038,-0.091497436,0.28745478,0.22875577,-0.021236345,-0.074273095,-0.021959297,-0.13586265,0.058441505,0.064105116,-0.42020798,-0.104528025,-0.06818054,-0.041205883,0.05427067,0.09467527,-0.17591958,0.2663084,0.07480699,0.03019214,-0.07810927,0.19353177,-0.15187798,-0.046170067,0.08122164,-0.14494476,0.1485445,0.24913755,0.025024226,-0.037273686,-0.32690206,-0.05926643,0.07852193,0.21230035,0.030689374,0.016462356,-0.05753324,-0.00032376838,0.2620712,-0.05533863,-0.08329196,-0.25557137,-0.15015656,0.260954,-0.03655571,-0.053710755,-0.03229045,-0.0037372054,-0.1180155,0.1041436,-0.18554771,-0.17881607,-0.20732501,0.10696735,-0.08982217,0.027160194,-0.17590763,-0.3141583,-0.2309761,-0.10809128,0.08659371,-0.14639685,0.09971679,-0.14998633,-0.041188467,-0.26458523,-0.3283046,-0.11309063,0.17447338,0.049840484,0.12727301,0.12708291,0.041685313,0.0037492686,-0.09203185,0.24491131,-0.07549347,-0.16588406,-0.06896973
on,0.15576749,0.11503675,-0.021471635,-0.022542415,-0.4618164,0.1477214,-0.121210575,0.15774971,-0.16924031,-0.1156052,-0.16842067,-0.056790195,0.023307536,0.15074128,-0.21696708,-0.17248611,0.21088971,-0.112512484,-0.0876601,0.08160931,0.11575083,-0.09110954,-0.09638404,0.3339703,0.18816295,0.12187318,-0.22994865,0.022643,-0.2677624,-0.09346118,-0.14506365,-0.08103621,-0.21841474,-0.046107855,-0.03120032,0.06007533,0.2659638,-0.16168009,0.018469866,0.21787822,0.040013853,-0.08276571,0.34292245,-0.07047836,-0.03257122,0.1567729,0.014297146,0.1560093,-0.019546673,0.062407855,-0.17811988,-0.2597136,-0.19080837,0.04643111,0.088688485,-0.05010774,-0.098221056,0.09387816,-0.16617733,0.26868305,0.07210602,0.116419606,-0.30919477,0.103738815,0.02095469,0.013936435,-0.09109739,-0.15088052,-0.23345244,0.05985934,-0.1009503,-0.030873947,-0.03925506,-0.039148446,-0.017456941,-0.18671854,-0.08553535,-0.06133656,-0.051402584,-0.3937394,-0.096218824,0.13930188,-0.036389817,0.12833108,-0.15923917,-0.041741166,-0.07739337,-0.25696194,-0.09345749,0.020883778,-0.12902454,0.27169958,0.19013283,-0.014963687,-0.031954743,0.018645352,-0.02634831,0.07446903,0.04032871,-0.17119505
all,0.095863886,0.12752491,0.0164139,0.08506263,-0.2735311,0.29869685,-0.024848279,0.31565297,-0.24569458,-0.086921126,-0.13498187,-0.04630949,0.0077755987,0.11970977,-0.16564804,-0.088801995,0.21438023,-0.108367376,-0.07287699,0.15802056,0.1530478,-0.17134444,-0.0973551,0.28464887,0.20220514,-0.10019209,-0.002496921,0.001165877,-0.24093522,0.040309258,-0.018177751,-0.22684318,-0.19710863,-0.057120834,-0.059250336,0.09223686,0.25142133,-0.14442846,0.19449794,-0.014843954,0.11574088,0.060099617,0.2891626,-0.1161023,0.050620943,0.040397864,-0.023380907,0.18774673,0.19149138,-0.010090389,-0.12623475,-0.34584838,-0.055226713,0.09769594,0.1111344,-0.0067326482,-0.17420389,0.12570329,-0.0853223,0.09051907,0.051534783,-0.088075325,-0.19975875,-0.09065576,0.1984659,0.066909075,-0.09309644,-0.2087311,-0.0763465,-0.036366306,-0.064998046,-0.13029958,-0.12762709,-0.0826966,-0.1053232,-0.075542524,0.0058701867,-0.007958177,-0.23111726,-0.26454282,-0.0990012,0.092339076,-0.073050536,0.17260288,-0.18083443,0.057408467,-0.26805577,-0.2097621,-0.07016568,0.09179093,-0.05845262,0.08600572,0.027540531,0.031365756,0.20940967,0.023393104,0.08438331,-0.07802369,-0.06702014,-0.11671479
was,-0.30005604,0.29951793,0.10190206,0.3175755,-0.05635993,0.17550093,-0.033324607,0.05485366,-0.0635903,0.4358926,-0.090148956,0.082737796,-0.051168673,-0.062070336,-0.08561827,-0.034049105,0.1323297,-0.21027923,-0.09141119,0.27055252,-0.008003056,-0.15598631,-0.2774227,0.16521595,0.36488324,-0.09871948,0.0100157345,0.0095493775,-0.012147839,-0.2575417,-0.0125205545,-0.16560903,0.026144857,0.04878332,-0.13101202,0.31533197,0.34599853,-0.17812742,0.07247316,0.02841768,-0.06257001,0.061953932,0.096613325,0.09318841,-0.0120771965,0.011766135,0.16319829,-0.015857842,0.14510188,-0.009042516,0.12636358,-0.40160152,-0.058922138,0.011546744,0.08865615,0.012070861,0.016016325,0.042059787,-0.060255118,0.04281677,-0.053521812,-0.13932079,-0.3009064,-0.029527593,-0.039423846,0.1198952,-0.10862883,0.19167674,-0.30707094,-0.022962214,0.114425406,-0.25697544,-0.2874806,-0.1555931,0.06998507,-0.011244084,0.11389337,0.23620509,-0.13945974,-0.24996394,-0.25346684,0.12745447,0.00092104974,-0.096631646,-0.42328247,-0.1402876,-0.27472353,-0.20852293,-0.18602242,-0.13127293,-0.26118904,-0.03817902,0.06517885,-0.048788097,0.03704641,0.04514048,0.010079966,-0.07122759,-0.30349943,-0.12318702
so,0.045258332,0.07232076,0.0110775465,0.08454512,-0.12952241,0.17971876,0.0121875,0.16414118,-0.112778805,0.110385254,-0.09712266,0.08536369,0.055580296,0.16561595,-0.15252474,-0.19918372,0.13008243,-0.2067295,-0.23211236,0.10720223,0.15774041,-0.06959781,-0.13874216,0.23524727,0.26371884,-0.12478846,0.005369999,0.0889359,-0.13680048,-0.021361893,0.035758182,-0.23602882,-0.05937933,0.008531485,-0.069086745,0.21413738,0.06365349,-0.13147855,0.099872276,-0.07043156,0.00020008371,-0.053612042,0.13615166,0.0310806,0.054316,0.107891776,0.0050423406,0.109946914,0.26744843,-0.091708034,0.029812846,-0.29761082,-0.011425794,-0.004345728,0.08416486,-0.054676667,-0.15592597,-0.095200524,-0.016982691,0.09949102,-0.1870142,-0.2008363,-0.26043203,-0.1548186,0.089358814,0.081540704,-0.06749399,-0.11491026,0.012187324,-0.07295886,-0.050003797,-0.17987604,-0.27152026,-0.11616857,0.026835524,0.009742599,0.10621884,-0.05399756,-0.23228626,-0.19141348,-0.13477868,-0.037073635,-0.12351445,0.08108165,-0.24259706,0.12363734,-0.29577595,-0.32445246,-0.12917611,0.09448975,-0.12665176,0.025864968,0.069241956,-0.124097176,0.10092663,-0.06536295,0.13361791,-0.062958546,-0.11110119,-0.12340714
they,0.29243878,0.11763101,0.15992433,-0.15617527,-0.30163306,0.42363825,0.15297781,0.36732513,-0.18661316,-0.15016276,-0.0013307766,-0.075888515,-0.010520963,0.29204848,-0.11536933,-0.14748196,-0.0070995116,-0.31648213,-0.09165728,0.042544067,0.24526481,-0.17251687,0.0026921055,0.4768989,0.16700733,0.061668172,-0.120031215,0.13224736,-0.25943413,0.031104421,0.018004898,-0.23187967,-0.2667929,-0.02241516,0.08408807,0.079792924,0.15406631,-0.024943352,0.08638348,-0.26855007,0.14136133,-0.062797,0.3192137,-0.020529088,0.072882846,0.43673763,-0.07298368,0.03998678,0.121222526,0.01834698,-0.07791815,-0.22227272,-0.15408115,0.13487554,0.013948045,-0.21964417,-0.37626675,0.021953104,0.0059701763,0.15564185,-0.045514934,-0.06085967,-0.24710153,0.074635915,0.195626,0.008943894,-0.11113866,-0.11413181,-0.16570482,-0.05176196,-0.2444938,-0.12181795,-0.0988198,-0.11701053,0.005701149,0.038052283,-0.040510844,-0.18867972,-0.095500626,-0.13758688,-0.08762529,0.14645699,-0.15812427,0.2255449,-0.16245596,0.01803407,-0.4507694,-0.3863341,-0.1847584,0.07632326,-0.09154193,0.18725757,0.15595174,-0.011971497,0.1440036,-0.1104495,0.08539098,-0.013509649,-0.023268439,-0.13605481
go,-0.11416393,-0.015375808,-0.16113381,0.08277495,-0.3591614,-0.1324171,-0.3103393,-0.014164982,-0.44144607,0.013296038,-0.23132081,0.0018789679,0.3127652,0.33418593,-0.21313934,-0.12399629,0.19748488,-0.12841627,-0.31887,-0.11306246,-0.03209995,-0.16601649,0.07274178,0.1793722,0.15613346,0.05086409,-0.47588646,-0.17511705,-0.11878872,0.14573166,-0.29842234,-0.115441516,-0.29068866,-0.05027882,0.09816022,0.019978471,0.05277722,-0.31745166,-0.0007088023,0.35908285,0.08653824,-0.30066472,0.18753828,-0.05520647,0.027310442,0.26297873,0.18171631,0.09189975,-0.142588,0.124506466,-0.34512955,-0.35586444,-0.09815698,0.09234925,0.17370023,0.03832808,-0.1619777,0.0012867369,-0.36869836,0.27992302,0.05732357,-0.028298043,-0.4025145,0.059833933,-0.0043487945,0.09348192,0.04019885,-0.45092338,-0.12723401,0.020752413,-0.058229346,-0.15460947,-0.2739856,0.05911941,-0.18073957,-0.26097992,-0.16477352,-0.1291419,0.09915799,-0.5597592,-0.04972777,0.11058703,0.054673538,0.28833148,-0.03608192,0.26986542,0.060522817,-0.22928053,-0.09130102,0.02887864,0.030425884,0.28600663,0.21860638,-0.16325253,-0.05510514,0.12848587,-0.038020857,0.12963466,0.06173101,-0.096773386
here,0.081641294,0.027040062,-0.10326393,0.0959947,-0.27934948,0.112737626,-0.10670177,0.15040824,-0.16098146,-0.012680986,-0.15165767,-0.04794113,0.14532027,0.20321153,-0.16329296,-0.11064977,0.18257102,-0.12811339,-0.1677043,-0.029839316,0.120299496,-0.036652505,-0.064233676,0.24576531,0.20510188,0.059853118,-0.1650182,0.026627725,-0.14902958,-0.09596805,-0.104785085,-0.1975731,-0.21093178,-0.0664632,-0.032371443,0.11802378,0.13193348,-0.19157557,0.108916245,0.15001668,0.05202237,-0.10664245,0.2471477,-0.100891545,-0.053289685,0.20085187,-0.028568331,0.13583706,0.11448014,0.090637654,-0.10975805,-0.34928313,-0.065445594,0.07868386,0.12061053,-0.0013102194,-0.032642774,0.01555711,-0.10044831,0.17518409,-0.07525206,-0.042732872,-0.2871673,-0.06267699,0.10930288,0.04134995,-0.047206912,-0.15400669,-0.13970102,0.055547483,-0.028035922,-0.11904506,-0.15243097,-0.05300704,-0.018609105,-0.19304305,-0.04448542,-0.114680514,-0.12673068,-0.28765902,-0.057494465,0.0195694,-0.09222317,0.11197722,-0.18873186,-0.0068453713,-0.15425219,-0.19440873,-0.08150351,0.11402824,-0.080465645,0.18332812,0.13986619,-7.687531e-05,0.021643206,-0.0094951205,0.07505802,-0.010922623,-0.046208043,-0.15011479
but,-0.07319467,0.13079637,0.009097421,0.16826646,-0.09663225,0.15274487,0.011531975,0.109275326,-0.1833335,0.17506473,-0.13666493,0.053717397,0.07518787,0.13133222,-0.118613176,-0.17358455,0.0564876,-0.18760411,-0.23946112,0.21802148,0.07910208,-0.12570268,-0.11001681,0.12462374,0.24854158,-0.117562965,0.019229064,0.019743014,-0.075136684,-0.16695572,-0.0022205925,-0.15843432,-0.10522348,0.07665561,-0.07756905,0.2079453,0.015460598,-0.1585092,0.037130684,0.067279816,0.013854645,-0.032573473,0.12161383,0.051416222,0.0003189632,0.030226503,0.10232232,0.059045814,0.22503205,-0.06717397,-0.03316214,-0.34424582,0.02347372,-0.0016542189,0.12748174,-0.07907533,-0.11452385,-0.06695457,-0.09471695,0.06505654,-0.11658413,-0.27119038,-0.32297477,-0.06686079,0.066553876,0.09533242,-0.046653148,-0.012201174,-0.009425448,-0.07518451,0.027311448,-0.23255523,-0.27530888,-0.10923672,0.06829559,-0.036989827,0.13146637,0.14893495,-0.19844711,-0.26387176,-0.096275255,0.03407496,-0.05407128,0.058744505,-0.28547278,0.06578979,-0.26605335,-0.29885036,-0.10220517,0.058042265,-0.14285049,0.035311315,0.12846479,-0.07331278,0.023699457,0.027818894,0.10275711,-0.07372373,-0.17962083,-0.09399469
she,-0.40757352,0.19612059,-0.06637215,0.2491572,-0.018237114,0.082459256,-0.10359305,0.0657535,-0.06568442,0.34041914,-0.0785393,0.005427094,0.12169314,-0.058958117,0.108331084,-0.14956899,0.009716604,-0.13920845,-0.15281953,-0.05522251,0.050585985,-0.024610164,-0.29855588,0.20776898,0.42141044,-0.05641473,-0.048569452,-0.060903504,0.072585344,0.028407965,-0.15206267,-0.19148335,-0.13885912,0.085791156,0.04286091,0.28738004,0.17140026,-0.35691565,0.021311091,0.029500568,0.06262956,0.05700578,0.13998383,-0.06400631,0.08069863,0.076957636,0.099799134,-0.05717044,0.27506128,0.04170043,-0.04885105,-0.3666702,-0.103034385,0.020983882,0.16539569,0.0996724,0.072459444,0.07209179,-0.23024496,0.2355853,-0.18980768,-0.28088585,-0.16950394,-0.03800842,0.072392516,0.016135415,-0.067723915,-0.1086285,-0.1737553,-0.090721816,0.03809108,-0.37207046,-0.3784065,-0.13764288,-0.000882098,-0.21777135,0.031634342,-0.040227022,-0.18796375,-0.24734512,-0.2876393,0.031656075,-0.11583868,-0.13675156,-0.3025964,0.020876847,-0.2785975,-0.20927724,-0.15443511,-0.023848088,0.062182438,0.15593198,0.09448425,0.06998098,-0.08864489,-0.039898515,0.19933523,-0.077601135,-0.18788645,-0.022085097
not,0.057496924,0.13828266,0.018139979,0.13611786,-0.20808256,0.089582086,0.0017020876,0.114881426,-0.16831698,0.056072634,-0.17801815,0.14453891,0.052938856,0.22720784,-0.10883842,-0.27055043,0.090232685,-0.20839287,-0.19355299,0.110089935,0.08474163,-0.061960146,-0.0931278,0.28787312,0.2535808,-0.15483736,-0.10951213,0.0322622,-0.22613075,-0.08375528,-0.022298818,-0.14831017,-0.10820739,0.020566493,0.02110383,0.1637987,0.017737068,-0.10162105,0.081267655,0.07157264,-0.015675345,-0.048973195,0.23766793,0.04168138,-0.000977083,0.07267827,0.075045474,0.17924993,0.15395299,-0.04706626,-0.062062737,-0.29246467,0.0048448453,-0.03631529,0.050669033,-0.11106487,-0.16195391,-0.096762165,-0.046550512,0.13149449,-0.05568306,-0.09109818,-0.30420846,-0.072849415,-0.0037775575,0.029815067,0.03150814,-0.08146687,-0.09822008,-0.009889045,-0.011257954,-0.19698551,-0.30790883,-0.15525344,0.06703409,0.017070172,-0.03755734,-0.006747504,-0.14044124,-0.28814936,-0.15195219,-0.008413679,-0.10091634,0.105784394,-0.13060008,0.14539553,-0.2569153,-0.33201262,0.024494698,-0.0100374445,-0.1329913,0.11843203,0.11708705,-0.07313477,0.04098253,-0.007808697,0.08730233,-0.04751769,-0.116020806,-0.11528348
no,0.10537837,0.06389104,-0.050165117,0.045628037,-0.33344567,-0.046398595,-0.17158769,0.113119505,-0.20294262,0.08606026,-0.20698963,0.10167119,0.09695972,0.09099079,-0.014172701,-0.41328284,0.13205633,-0.02087493,-0.018614203,0.11959607,-0.028806975,-0.093747355,-0.025649393,0.047022823,0.2757329,-0.04596875,-0.16155615,-0.11535197,-0.16024585,0.04507824,0.018633261,-0.32051885,-0.019736353,0.027468102,-0.13101995,0.10499436,-0.0068735257,-0.25729766,0.19707128,0.321441,0.0046758684,-0.13056792,0.17968564,-0.20284826,0.1357265,-0.13649234,0.054802176,0.1727209,0.22066322,-0.200151,-0.06297596,-0.3608536,-0.07707922,0.015881147,0.17860514,0.079284176,-0.0007114495,-0.14388534,-0.13912617,0.3200376,0.0037914438,0.06841293,-0.42339817,-0.07698641,0.18800975,0.015490653,0.03550401,-0.019707937,0.07682106,-0.06508515,0.05198762,-0.155517,-0.19757748,-0.15459095,0.19388393,-0.033720355,0.064258814,-0.15362199,-0.28805223,-0.34644663,-0.070455976,0.040680014,-0.018628929,0.030980475,-0.22961721,0.014929478,-0.16740648,-0.4630218,-0.037573375,0.096209995,-0.049002074,0.21832043,0.019924283,-0.059524663,-0.042010833,0.10378868,0.07004741,-0.16134058,-0.2218305,-0.018474285
like,-0.16879615,0.19474554,0.02055597,0.14197478,-0.013396907,0.0785937,0.019191679,0.041296624,-0.2234629,0.2761008,-0.15023556,0.094295,-0.02749622,0.10419822,0.019041603,-0.16863658,0.012423387,-0.11406078,-0.15711857,0.22179794,0.0033275646,-0.087177955,-0.10665882,0.12134205,0.33720738,-0.08217952,-0.046663925,-0.061506595,-0.08860101,-0.05567271,-0.08878146,-0.15111057,-0.030438408,0.07775581,-0.094929114,0.3096655,0.14394774,-0.27912676,0.12504618,0.117380366,0.022943938,-0.018203875,0.27291024,0.041087,0.006603091,-0.018810997,0.027493259,-0.0025462422,0.29313394,-0.10001241,-0.058592547,-0.41192392,-0.004410701,0.05066318,0.1408184,0.061077904,0.024475308,0.07359617,-0.089990534,0.17018244,0.014118439,-0.09804785,-0.32646167,-0.13646239,0.036651466,0.09264259,0.042409457,0.046739317,0.019703194,-0.082033284,0.0576917,-0.20316756,-0.32783967,-0.1885749,0.08936421,-0.04144159,0.108395435,0.117352515,-0.20689306,-0.18087654,-0.16876566,0.0038857716,0.039156083,-0.07972321,-0.30373442,-0.00739342,-0.29942593,-0.3504249,-0.19145563,-0.0213202,-0.09866933,0.025304774,-0.017590063,0.0029304049,0.0031015927,0.075345285,0.059431247,-0.10668982,-0.15440737,-0.021253405
if,0.0939506,0.02169802,0.00748271,0.03291529,-0.18879028,0.2200973,0.02715937,0.14097664,-0.29251912,-0.14421104,-0.21326834,0.06644521,0.22919825,0.30373877,-0.2780191,-0.12547795,0.11431112,-0.22367269,-0.38777545,0.17466013,0.067526504,-0.24065997,0.05295643,0.1376197,0.16078424,-0.06465008,-0.08128839,0.13095792,-0.18569721,-0.08639196,0.004332539,-0.105135284,-0.13360648,-0.014271148,0.013103381,0.14148216,-0.05366087,-0.14996438,0.029765366,0.010384989,0.05134826,-0.10657804,0.2712335,-0.010867892,0.005378431,0.06852972,0.006980722,0.119266234,0.15503232,0.012802329,-0.09330932,-0.4310431,-0.021415776,0.09924848,0.1128776,-0.14715227,-0.15442652,0.024500472,-0.12850748,0.07528444,-0.15673983,-0.25322878,-0.28215748,-0.11723752,0.09012683,0.031660333,0.0948869,-0.14305775,-0.045701433,-0.010945334,-0.13293627,-0.1324705,-0.2169039,-0.062331602,-0.050076783,-0.20185369,0.12340756,0.06845757,-0.19056742,-0.1750397,0.05867393,0.01826402,-0.10556253,0.2339601,-0.15665099,0.13189253,-0.29535842,-0.2423438,0.0027005724,0.14487945,-0.11824166,0.048495542,0.03372828,-0.14668503,0.11345771,0.021698259,0.115188956,-0.047165744,0.046087924,-0.102969676
with,-0.07252769,0.15858762,-0.06449327,0.11895797,-0.2097253,0.14128599,-0.05281735,0.0719668,-0.14852883,0.09094673,-0.16425596,-0.020353418,0.07912584,0.14931734,-0.21434769,-0.033957727,0.1106018,-0.17977801,-0.20662025,0.12873974,0.085949466,-0.13170022,-0.07734839,0.18737009,0.22469348,0.019066289,-0.09083021,0.018111188,-0.14761542,-0.090595804,-0.12784497,-0.095824644,-0.091422625,-0.009126977,-0.00020038891,0.21268386,0.13819034,-0.16899614,0.07667575,0.07159876,0.03092396,-0.07210985,0.23376347,0.007941904,-0.05505548,0.05839455,0.042059097,0.07984883,0.12504266,0.005076563,-0.016611142,-0.32896265,-0.07772366,0.10633382,0.08931341,-0.03824198,-0.026936295,0.069091514,-0.1312302,0.09163104,-0.06605934,-0.18097842,-0.2830209,-0.012100148,0.026211886,0.040179756,0.013645078,-0.09574377,-0.15333313,0.0065293927,0.01316295,-0.18695542,-0.18833818,-0.10717349,-0.013181005,-0.18585306,0.017473036,0.13698123,-0.13193405,-0.21793908,-0.08328323,0.08618427,-0.11184605,0.07615701,-0.27738753,0.05198807,-0.23716111,-0.2332667,-0.121469125,0.03849334,-0.10897068,0.0682465,0.11034518,-0.08849903,-0.018092234,0.04771738,0.08725467,0.020707143,-0.025849044,-0.11195046
will,0.08269993,0.044152934,-0.097639985,0.06927458,-0.27432424,0.30057818,-0.0440728,0.22572161,-0.22517772,-0.08973202,-0.14201213,0.0024436566,0.08806737,0.14743094,-0.270659,0.11586521,0.13949695,-0.14476366,-0.29199943,0.21051782,0.026185913,-0.30015755,-0.07051111,0.23647214,0.20891088,0.028672813,0.053724132,0.23878288,-0.19295228,-0.2609441,-0.09076067,-0.08401878,-0.15656368,-0.13290592,-0.06478887,0.048201438,0.20324484,-0.08156398,0.13251324,0.04462841,0.039650887,-0.12311718,0.2359066,-0.07626962,-0.092101485,0.12517741,0.0039960477,0.05461084,0.06426483,0.12649591,-0.07776538,-0.43952915,-0.11949378,0.13791393,0.07101561,-0.06675823,-0.11686989,0.036004428,-0.13867094,-0.028303513,-0.17216049,-0.12853631,-0.34720454,-0.0067812996,-0.013816679,-0.053336594,-0.0055632815,-0.05247321,-0.32074663,0.08925421,0.049323875,-0.111557916,-0.07796894,-0.12213274,-0.171994,-0.16000265,-0.03483173,0.05201301,-0.13046081,-0.22986,-0.05572936,0.18014702,-0.1367351,0.19757566,-0.13334693,0.08918642,-0.2060831,-0.09220724,0.04231938,0.04838432,-0.13132773,0.19512545,0.18527944,-0.003245503,0.094657026,0.050926223,0.0990966,-0.034829807,-0.054254126,-0.16634026
oh,-0.10816213,-0.0007091884,-0.049297743,0.03604121,-0.107770175,-0.07081057,-0.057654206,0.0437684,-0.09093648,0.28530532,-0.06411267,0.13720888,0.007184643,-0.096146904,-0.05314302,-0.26515236,0.29138598,0.033416145,0.12824018,-0.045906268,0.029351566,0.14914428,-0.21148522,0.059524223,0.5133349,-0.019624805,-0.08568687,-0.021153068,-0.1890802,-0.020206152,-0.19497533,-0.2661132,0.011950378,0.08952381,-0.116391875,0.2729446,0.19444938,-0.3899508,0.21260741,0.20790161,-0.13840285,-0.13392584,0.06275482,-0.057527076,0.1048575,0.10471193,-0.012705656,-0.025609653,0.24545906,-0.2567208,-0.022215748,-0.14259505,-0.16537134,0.01978632,0.06262713,0.19433534,0.08579239,-0.19581418,-0.026478013,0.36100957,-0.18712947,-0.0008703199,-0.49192563,-0.023074893,0.18950583,0.129714,-0.14496359,0.054775994,0.06533532,0.0097552445,-0.046037864,-0.13412671,-0.2693903,0.030075843,0.06607007,-0.05278739,-0.0352759,-0.27267978,-0.27951255,-0.26252973,-0.19587055,-0.17370611,-0.0498001,-0.008023504,-0.3058811,-0.026735837,-0.037058517,-0.4955424,-0.23695879,0.051629577,-0.08547428,0.17437351,0.012108622,-0.28600344,-0.044047605,-0.012675736,0.03796091,-0.098065816,-0.2849201,-0.16735059
he,-0.3605111,0.14412528,0.02904962,0.36885735,-0.14007826,0.06452596,-0.07956795,-0.0061341827,-0.08786925,0.28715,-0.15040727,0.023349822,0.220997,0.03740506,-0.042432364,-0.17173186,0.0239941,-0.26774627,-0.09564009,-0.092433944,0.04695014,0.14151037,-0.24269599,0.119288705,0.28429306,0.03432892,-0.16385575,-0.08666248,0.14599127,-0.06112146,0.027492652,-0.28238276,0.027091254,0.12017772,0.017958634,0.32167408,0.18130504,-0.29408056,0.041444104,0.0269765,0.023851113,-0.09349863,0.13606428,-0.050691657,0.11137888,0.07813422,0.057774335,-0.13119723,0.16462515,0.09707582,-0.0060160877,-0.52205396,-0.09448494,0.04372884,0.26886642,0.020101631,0.10834269,0.06261243,-0.19619167,0.24913575,-0.13693015,-0.22217298,-0.20697163,-0.02687969,0.11395517,0.049653437,-0.04492179,0.19117565,-0.15819636,0.021845873,-0.056050014,-0.20794994,-0.31414244,-0.08954664,0.11403772,-0.25143304,0.24564523,0.024474286,-0.081726484,-0.229535,-0.16748475,0.08556784,0.08248247,-0.11741729,-0.37895924,-0.20641829,-0.23667432,-0.30787194,-0.15572852,-0.047856227,-0.18280777,0.011246764,0.043082964,-0.12417887,-0.21024585,0.021193229,0.06252761,-0.008870955,-0.14770773,-0.052081198
just,-0.06587681,0.085575715,0.069956884,0.08842932,-0.16140553,0.032349866,-0.10859809,0.054418847,-0.18439962,0.19180346,-0.12839447,0.08019857,0.09369165,0.09220399,-0.07658618,-0.25274,0.11099195,-0.17589633,-0.17402236,0.020151548,0.10895609,0.004479875,-0.1380849,0.15804897,0.30084234,-0.05025373,-0.1598155,-0.058380798,-0.08602186,0.04863502,-0.095887125,-0.1599478,-0.07364205,0.03910533,-0.124732785,0.23288956,0.07954386,-0.25440148,0.09676245,0.10360726,0.013249477,-0.118480906,0.16739404,0.03424026,0.07450284,0.0977165,0.046500653,0.06137954,0.17993812,-0.06692179,-0.16509323,-0.34619164,-0.07584117,0.038895197,0.16732027,0.04767359,-0.13826358,-0.022018543,-0.07816597,0.24103276,-0.09111375,-0.12318682,-0.29294658,-0.14016844,0.11102668,0.073334746,-0.06551536,-0.027253853,-0.04660804,-0.046144206,-0.049976245,-0.16315362,-0.24922746,-0.043263663,-0.0057216794,-0.115839854,0.05231017,-0.06471206,-0.1784762,-0.26803452,-0.17100652,0.011718484,-0.07505863,0.10346265,-0.20669927,0.036686223,-0.16046968,-0.3285358,-0.156418,0.038337566,-0.07058422,0.06524172,0.12732214,-0.064744614,-0.036036626,-0.008782803,0.14513434,-0.05075113,-0.073931605,-0.111983925
up,0.029795323,0.011781514,-0.043496717,0.066554144,-0.2673948,0.046902947,-0.13576497,0.14022304,-0.16533247,0.0064555355,-0.09190968,-0.040833943,0.16607709,0.15965945,-0.13465393,-0.102579184,0.11994306,-0.12819596,-0.13907303,0.03220298,0.05413927,-0.007922969,-0.046232942,0.13426948,0.18831523,0.15395124,-0.24917528,0.053172823,-0.12470815,-0.022520289,-0.25490534,-0.257854,-0.22135688,-0.0800739,0.004496646,0.13596216,0.18403569,-0.27973124,0.04720532,0.1551841,0.017152252,-0.10070667,0.32085225,-0.118570074,-0.0702166,0.21274275,0.051626183,0.00599964,0.08356638,0.0016695979,-0.20247175,-0.28226918,-0.15098396,0.04075916,0.07206168,-0.08067401,-0.040138338,0.13352227,-0.13356233,0.2667439,-0.058299527,-0.0105505865,-0.43543175,0.0019293668,0.014925162,0.05433137,-0.038677674,-0.10427937,-0.15818273,0.06569346,-0.12829667,-0.06697857,-0.096859,-0.015296712,-0.043474365,-0.23551914,-0.030873679,-0.12989336,-0.03665665,-0.3883039,-0.17789362,0.021956317,-0.0032327943,0.09416737,-0.14843883,-0.012178787,-0.018886745,-0.25399426,-0.14635691,0.038981162,-0.10772001,0.16998851,0.23557018,-0.07606271,-0.065620676,0.10800261,0.0038660362,-0.03362263,0.06385583,-0.20497695
can,0.17296892,-0.048493836,-0.072693504,0.15429768,-0.09212654,0.074032925,-0.056763735,-0.056293152,-0.25783196,0.04197655,-0.2229592,0.12822303,0.2180764,0.33552507,-0.31755567,-0.22075307,0.19477291,-0.087091185,-0.31998852,0.095235206,0.09030542,-0.13108295,-0.0045817327,0.09781042,0.2198196,-0.12174249,-0.14305796,0.029955033,-0.2368215,-0.0006960436,0.037777063,-0.04090112,-0.08044803,-0.08098588,-0.05562363,0.16962884,-0.057641607,-0.17812964,0.056133706,0.18560405,0.033686962,-0.2205885,0.23877394,0.00701732,0.05884657,0.056254808,0.047446754,0.18150043,0.17234291,-0.08890455,-0.120445214,-0.48392537,0.028756958,0.11284421,0.041859806,-0.022877967,-0.19254471,-0.059677076,-0.13426366,0.06882494,-0.11079342,-0.14799993,-0.3807449,-0.22008885,0.02476216,0.02593981,0.048405003,-0.18290687,-0.017995538,0.03771364,-0.052959144,-0.1449905,-0.31156066,-0.012581256,-0.09365195,-0.08486431,0.03928122,0.12803984,-0.17966236,-0.2597036,0.07583999,-0.0473075,-0.09976516,0.21141998,-0.20956469,0.14646082,-0.1610138,-0.26619163,-0.011255997,0.10150476,-0.18777516,0.06636048,0.07290092,-0.13187324,0.07755645,0.08487496,0.07336459,-0.10239185,-0.08409058,-0.10860783
get,0.07939604,0.009083422,-0.061444778,0.18245505,-0.26099262,0.06289238,-0.15494087,0.108315624,-0.33157673,0.010408825,-0.27207974,0.033049103,0.1922929,0.3653752,-0.24003787,-0.17055066,0.18741605,-0.23259452,-0.26576492,0.031977054,0.082048886,-0.11763171,0.07022575,0.18642093,0.17484452,0.019201437,-0.34825572,-0.035306398,-0.093727015,-0.01606644,-0.20932968,-0.13534372,-0.33829823,-0.10731201,0.135833,0.0069608972,0.056483768,-0.238149,0.034775164,0.1694304,0.0585713,-0.26702377,0.18647175,-0.061502878,-0.0063256514,0.2730679,0.11906595,0.08711241,3.4777957e-05,0.075691186,-0.23570125,-0.35080022,-0.050323866,0.033358753,0.03271876,-0.04672955,-0.20939648,0.021606697,-0.16394107,0.22378822,-0.02006158,-0.024629973,-0.337595,-0.012962207,0.07080013,0.077694476,-0.0187684,-0.33541086,-0.14942317,0.1198639,-0.20453669,-0.053176053,-0.1940221,-0.0065849586,-0.16731484,-0.22730492,-0.11947536,-0.14809778,0.036023285,-0.48752603,-0.041440308,0.070659906,-0.0047072684,0.3286219,-0.0083400365,0.12857239,-0.002972002,-0.16339472,-0.10817739,0.059521668,-0.041671183,0.21090835,0.18174787,-0.20412327,0.042018928,0.08965472,-0.00020645114,0.035641372,0.119766556,-0.2472534
right,0.16128747,0.09252173,-0.04036534,0.015780658,-0.31337878,0.16436836,-0.14875068,0.24991256,-0.1806849,-0.040634762,-0.10700978,0.05741957,-0.09669994,0.10128645,-0.07101621,-0.34156436,0.18646419,-0.15904564,-0.1329471,0.03343259,0.15175065,-0.18021569,-0.016194062,0.30281103,0.27513,-0.18449377,-0.09323171,-0.05092605,-0.24620031,0.10978818,-0.0912865,-0.23811923,-0.1627082,0.0012292154,-0.13649608,0.17473501,0.27546743,-0.21215896,0.13010797,0.009333525,0.096903995,-0.08867986,0.22476108,-0.079460144,0.04296148,0.13368359,-0.08028213,0.22817084,0.13187397,-0.07831913,-0.12538747,-0.322298,0.029609866,0.026720233,0.12702309,0.07441562,-0.3078331,-0.08603869,-0.08842864,0.24797803,-0.029005315,0.024455726,-0.19471617,-0.2025802,0.20762955,0.017720811,-0.15504803,-0.32928193,-0.031353552,0.0073371935,-0.055943545,-0.13449995,-0.16505551,-0.12095859,-0.056788623,0.04481029,-0.027734919,-0.26685324,-0.13294856,-0.28053552,-0.10428279,0.1382073,-0.16184156,0.13792017,-0.15735568,0.09108252,-0.2088442,-0.24302489,-0.069056,0.10652387,0.030146347,0.09152065,0.15266779,0.030716855,0.14348517,-0.104946196,0.23370548,-0.052811783,-0.053920295,-0.14119397
come,-0.0041044084,-0.0704969,-0.064002395,-0.10130872,-0.3503478,0.12177576,-0.18395047,0.19493353,-0.24440369,-0.12559745,-0.10750386,-0.124006085,0.17674741,0.2928763,-0.16614345,-0.013070712,0.21007091,-0.14353108,-0.14680055,-0.0692819,0.1968169,-0.13321756,0.0030596282,0.23273213,0.17133114,0.033515215,-0.46582392,-0.05740564,-0.19497603,0.033955395,-0.24541911,-0.17583366,-0.24667342,-0.13262172,-0.12145598,0.013321962,0.18723698,-0.17139137,0.122691095,0.09521826,0.04852493,-0.09521565,0.25213066,-0.10122231,0.032102767,0.1936202,0.15769966,0.22612005,-0.01584742,0.11780595,-0.21542352,-0.36142698,-0.12915666,0.191915,0.022702565,0.019207612,-0.09649705,0.028991284,-0.13229121,0.21830854,0.042108834,0.11956672,-0.36121753,0.13658012,0.17983252,0.103350505,0.007590194,-0.30014026,-0.26878726,0.10220048,-0.054471113,-0.061562713,-0.13483424,0.016056444,-0.20995335,-0.20658842,-0.172025,-0.24099089,0.04592423,-0.3975626,-0.07825653,0.025586003,-0.18255274,0.21024156,-0.17802656,0.14576344,-0.05225542,-0.21513003,-0.16785882,0.09640243,-0.06784517,0.22132134,0.06514533,-0.02528449,0.042252813,-0.061336808,-0.00074317004,0.12896436,0.12532933,-0.2825968
let,-0.036342256,0.041122667,-0.19986647,0.13729808,-0.3167325,-0.08846128,-0.23020504,0.006663238,-0.2651427,-0.025311014,-0.17506057,-0.030969404,0.36238107,0.22135466,-0.19775619,-0.29073098,0.1166707,-0.09304975,-0.25085562,-0.22810078,0.07318057,-0.03962939,-0.041050788,0.16058177,0.13944243,0.07733331,-0.4166798,-0.14780281,-0.13545659,0.26389205,-0.38506353,-0.1372645,-0.24536651,-0.1483185,0.1322885,0.006344877,-0.019114442,-0.29200926,-0.0783735,0.32120934,0.07846868,-0.4023265,0.28254554,-0.059563767,0.061843645,0.23452906,0.12791422,0.18845017,-0.050515186,0.086023614,-0.37531132,-0.35756972,-0.121880606,0.11277623,0.20531252,0.054950673,-0.05577183,-0.067204155,-0.36832398,0.40094674,-0.07333922,-0.20141858,-0.34021482,-0.0067347884,-0.035938635,-0.06358715,0.06480653,-0.43360618,-0.089932024,-0.030309489,-0.0544866,-0.18631002,-0.25002784,0.079798765,-0.2221293,-0.3241151,-0.15080644,-0.12101611,-0.08826982,-0.54025495,0.0028750498,0.16299498,-0.07035248,0.25662985,-0.009497819,0.27683085,0.00091206667,-0.36536986,-0.040001296,0.059290286,0.17291123,0.3456877,0.28312555,-0.13106187,-0.2052399,0.05819287,0.13808541,0.14057373,0.14854532,-0.116890214
now,0.017159425,0.012226022,-0.013258282,0.08697271,-0.24595411,0.07432997,-0.11253039,0.1555517,-0.24107447,-0.0249791,-0.17524722,0.028447283,0.12444688,0.23035651,-0.15650164,-0.23813489,0.15501156,-0.14027521,-0.23938075,0.022614436,0.11293908,-0.1240976,-0.0262768,0.20327485,0.19714022,-0.026039485,-0.17937627,-0.0025554965,-0.18073887,0.05185583,-0.07841693,-0.19241601,-0.18775935,-0.0164654,-0.04599596,0.11673627,0.045901295,-0.2094721,0.10044946,0.09447935,0.06808069,-0.09364259,0.2168402,-0.043809477,0.05265211,0.087095045,0.059877943,0.13918217,0.14917225,-0.01788901,-0.1970155,-0.36100364,-0.002142289,0.030280018,0.111785695,-0.018138804,-0.20251793,-0.027672272,-0.0996316,0.18719299,-0.05470174,-0.09955928,-0.26733696,-0.12884033,0.14177084,0.05847271,-0.028211584,-0.20681593,-0.02860923,-0.0077079837,-0.100281484,-0.15241292,-0.2208982,-0.06476834,-0.056688078,-0.11411346,-0.020479336,-0.09513512,-0.16444774,-0.33815062,-0.061347418,0.037595734,-0.035867844,0.20452194,-0.10372275,0.12969099,-0.15556465,-0.2674332,-0.09584273,0.08787751,-0.019911975,0.14890411,0.08203885,-0.07674336,0.08221167,0.040813595,0.067378856,-0.03011879,-0.051105067,-0.098263375
at,-0.008021582,0.15106669,0.032840796,0.054293163,-0.24788083,0.1869189,0.004323787,0.1559638,-0.25929952,0.032982808,-0.11600185,0.055995867,0.051632464,0.16233528,-0.11151495,-0.08180811,0.05527895,-0.2071599,-0.10381982,0.114135645,0.05138143,-0.052121755,-0.026951833,0.18392353,0.27931526,-0.027633252,-0.086575046,-0.029065179,-0.16226794,-0.047811825,-0.07729247,-0.085943066,-0.103412814,0.088766895,0.00822092,0.08104516,0.15951343,-0.20389082,0.071132325,0.06537752,0.018015835,-0.10099465,0.30061066,-0.013659722,-0.009527004,0.101439245,-0.0042847795,0.016281007,0.09886121,-0.03320563,-0.112341,-0.39220053,-0.14826787,0.054254737,0.12120652,-0.009894727,-0.10111327,0.1087568,-0.059731428,0.18243471,0.02291817,-0.13322122,-0.30523205,0.006835613,0.079540394,0.006894793,-0.049562573,-0.007738872,-0.0909403,-0.050778355,-0.025961298,-0.10072499,-0.20687312,-0.10181431,0.07212757,-0.13645104,0.051293064,0.026485635,-0.12578416,-0.20293678,-0.08373663,0.13663886,-0.10284188,0.09140121,-0.28820616,0.02505329,-0.27679855,-0.26968113,-0.12177675,0.121686675,-0.16641328,0.116537616,0.14046165,0.027044283,-0.022013498,-0.03617805,0.105114095,0.001805886,0.010074882,-0.06973043
out,0.0776461,0.08575528,-0.05141576,0.14671195,-0.34306765,0.074992925,-0.14216776,0.1360658,-0.18482795,0.004451827,-0.14788522,0.007563851,0.09534228,0.23680955,-0.15484563,-0.15773703,0.15657473,-0.17544983,-0.05345852,0.04289601,0.08403432,-0.078959845,-0.12246422,0.23456573,0.21152166,0.07317454,-0.18701495,-0.041294593,-0.18650012,-0.06539563,-0.13985753,-0.20889539,-0.24125716,-0.067937784,0.012668953,0.024073943,0.18998668,-0.16994399,0.029886061,0.20522696,-0.016507478,-0.13045838,0.30515197,-0.077846415,-0.05853366,0.12678131,0.055290055,0.12698363,0.020262452,0.054014485,-0.13872884,-0.32885104,-0.095398754,0.064558916,4.8667684e-05,-0.09751424,-0.080901496,0.042392038,-0.13246095,0.2540452,0.08344499,0.029863222,-0.37083113,0.026107289,0.01931488,0.0007388786,-0.024936318,-0.14631614,-0.23104015,0.06421471,-0.01743781,-0.14633769,-0.11412948,-0.08626283,0.0005305576,-0.14767496,-0.080648616,-0.093555674,-0.06877015,-0.35886103,-0.03453227,0.060834434,-0.045109045,0.12753119,-0.14193669,0.005414332,-0.08207471,-0.1713783,-0.035117093,0.036019072,-0.12734342,0.2616279,0.18026082,-0.016893493,-0.0360631,0.054283507,0.017002843,0.031939104,-0.0031242252,-0.21341814
as,-0.038337722,0.22929607,-0.15478107,0.23048626,-0.17929329,0.49029472,-0.17609088,0.15492426,-0.20367275,0.15749602,-0.043287773,-0.014869378,0.28321123,0.37603122,-0.3247381,0.0723886,0.14527231,-0.20765585,-0.24769281,0.057401482,0.12313685,-0.09985751,-0.044269007,0.4648014,0.28151885,-0.32673565,-0.122488335,0.09375049,-0.3755664,-0.34435195,0.070420824,0.0675036,-0.15275128,0.031617943,-0.058892317,0.26648483,-0.07551949,0.06831694,0.11244896,0.13476282,-0.005883943,-0.11932639,0.22657526,0.14400017,-0.14060454,0.19183065,0.008192124,-0.06560746,-0.082863234,0.43990675,0.04911777,-0.5541924,-0.16443425,0.06967882,0.02605364,-0.03251014,0.0112375375,0.13011509,-0.20812039,-0.17653047,-0.14925002,-0.29500592,-0.039469436,0.018043391,-0.20014308,0.23767745,-0.15876196,-0.02235128,-0.4615902,-0.12808007,0.201137,-0.28286275,-0.30898958,-0.11189118,0.031840164,-0.21729045,0.1507947,0.3986439,-0.13556756,-0.083122075,0.05097686,0.298485,-0.2390649,-0.077218905,-0.3957581,-0.0188212,-0.50706303,0.11070699,0.13146566,0.14244403,-0.32555607,-0.07491959,-0.0717886,-0.018848725,0.15603511,-0.08715478,0.043304864,-0.06701678,-0.01671733,0.046790928
back,0.025289955,0.07186313,-0.08525495,0.025101796,-0.39803746,0.080712415,-0.1502391,0.172762,-0.1563722,-0.11592897,-0.19467983,-0.05614958,0.16477051,0.14345412,-0.29177988,-0.10349962,0.25317404,-0.16017805,-0.18172097,-0.054646477,0.11239487,-0.11922704,-0.112041146,0.2220446,0.13997385,0.13009234,-0.2827949,0.050797056,-0.20858341,-0.089196436,-0.24260229,-0.10613221,-0.23486054,-0.110463515,0.008996355,0.03594836,0.20438689,-0.19129574,-0.02890623,0.18083848,0.022197414,-0.14287068,0.23714715,-0.04845073,-0.04074119,0.21358643,0.11863641,0.123800434,-0.015396871,0.119032115,-0.2193394,-0.26265475,-0.23459886,0.034361277,0.050819967,-0.059326362,-0.14796184,0.053201523,-0.202206,0.2193713,-0.055125013,-0.04542357,-0.31904012,0.10153899,0.0146662295,0.062308192,-0.10918927,-0.1857545,-0.2754046,0.14581043,-0.16850865,-0.0062966673,-0.08176754,0.0702432,-0.18316773,-0.27703473,-0.1282572,-0.14805715,-0.031240374,-0.52317166,-0.14988394,0.07200606,-0.020355238,0.2475038,-0.11618597,0.06556524,-0.018898608,-0.20027764,-0.07294143,0.009250759,-0.124840274,0.28319198,0.23704536,-0.16490257,-0.012611114,0.001687783,-0.05648689,0.13470477,0.082675196,-0.22390369
her,-0.2958586,0.115692675,-0.051439606,0.25395507,-0.1493694,0.021082874,-0.13624221,0.009104909,-0.20725153,0.14572735,-0.22364372,0.035592478,0.20979321,0.21054846,-0.12051017,-0.10142778,0.079705164,-0.16295557,-0.29091403,0.04349662,0.05935372,-0.046515908,-0.1700209,0.13814192,0.3015842,-0.017902786,-0.20103808,-0.02488471,-0.06720496,-0.06735992,-0.2534875,-0.08709863,-0.18471728,0.037758514,0.11600931,0.13809584,0.05822556,-0.1987453,-0.08725447,0.09790304,-0.008354407,-0.05811475,0.19314101,0.04431918,-0.03275135,0.058000013,0.23020303,-0.04342211,0.100169875,0.015724,-0.14681183,-0.3858542,-0.108751,-0.02296832,-0.027134346,-0.08075122,-0.08039698,0.039086092,-0.19559167,0.14576766,-0.099795245,-0.24511573,-0.33801687,-0.012514057,-0.053030215,0.10045505,-0.023138566,-0.21053721,-0.23676507,0.040715136,-0.021043586,-0.2827574,-0.33656418,0.0014518377,-0.11046075,-0.22705148,-0.04814857,0.0061165006,-0.021519875,-0.43977347,-0.19664416,-0.035285365,0.024158511,0.07082771,-0.18885262,0.18623991,-0.053095214,-0.1723338,-0.057648785,-0.006658906,-0.06550553,0.21112107,0.14189632,-0.084040835,-0.045895126,0.08879158,-0.006874604,0.053199846,-0.019840676,-0.110608354
ah,-0.000113962065,-0.059446495,-0.076644346,-0.053756386,-0.19204138,0.07782222,-0.11818416,0.16381995,-0.08379759,0.20152368,-0.009304081,0.05532538,-0.04384014,-0.09373955,-0.060395915,-0.13370168,0.26029825,0.0005070863,0.025826173,0.017744392,0.06290515,-0.05057201,-0.12702484,0.15265329,0.38363618,-0.0008461491,-0.022169834,0.01969702,-0.1696385,0.051034044,-0.107815154,-0.30892384,-0.10418089,0.008459075,-0.22673157,0.27863815,0.29791507,-0.3773925,0.3113922,0.07558244,0.017664082,-0.061685417,0.08750007,-0.17025337,0.07747522,0.14359231,-0.10765924,0.03762244,0.28227437,-0.27503568,0.0017866021,-0.13260576,-0.16866034,0.16001074,0.12681074,0.194463,-0.045290556,-0.1603469,-0.015400145,0.24396066,-0.18305874,-0.03623704,-0.2956138,-0.10198127,0.29811123,0.03371224,-0.16395473,-0.04839467,0.10428375,-0.060381804,-0.042846624,-0.049098868,-0.13617162,-0.09669119,-0.057989422,-0.06983569,-0.013227428,-0.29743192,-0.26520768,-0.20744604,-0.27919617,-0.051447302,-0.15611877,0.058875836,-0.20414513,-0.004864941,-0.118558,-0.39594227,-0.28168145,0.040049296,0.025536606,0.10457839,0.11033841,-0.09749442,0.07324147,-0.09385082,0.14019409,-0.089136474,-0.20900919,-0.21751326
one,-0.0691298,0.121937506,0.009137626,0.073567584,-0.284902,0.18670207,-0.06902536,0.22574957,-0.1821514,0.09387546,-0.11862956,0.024157714,0.14059336,0.14248383,-0.096212886,-0.07023331,0.069138624,-0.18994159,-0.074670754,0.17528787,0.036871087,-0.12875253,-0.06857429,0.24157849,0.2891008,-0.05409954,-0.061097894,0.050456185,-0.14282897,-0.1632054,0.034124758,-0.22514379,-0.045031004,0.0047942232,-0.008156576,0.013920714,0.05213738,-0.094063535,0.11283451,0.12644225,-0.056600217,-0.0061659,0.18876913,-0.05122636,-0.034790676,-0.055639155,0.050036076,0.10537415,0.13712154,0.08418959,0.039845206,-0.4216248,-0.14431939,0.034059547,0.113261014,-0.070777886,0.054835543,0.019284992,-0.09921027,0.15575477,-0.002787346,-0.05327479,-0.33430314,0.011429446,0.068745084,0.011635755,0.03769206,0.057564788,-0.2796241,-0.10437912,0.19366007,-0.23904012,-0.1926886,-0.2341238,0.18782921,-0.09512355,0.12552842,0.016066503,-0.21100335,-0.18723655,-0.025041614,0.08315662,-0.130934,0.03290307,-0.30609953,-0.02897019,-0.26957393,-0.20834506,0.033382062,0.119175695,-0.17870556,0.15472966,0.044728834,0.013899743,-0.020116432,-0.05520145,0.080563046,-0.0052641807,-0.1002235,-0.07579775
t,0.17297453,-0.0021077553,0.10946921,0.17322889,-0.04538758,-0.283689,-0.12589934,-0.10823668,-0.4497728,0.008946038,-0.46100536,0.32033837,0.334258,0.3377274,-0.2916204,-0.5497022,0.01346701,-0.30174685,-0.2362177,0.031127231,-0.023761308,0.05273163,-0.20702615,0.15797223,0.38872364,0.12062889,-0.30539626,0.00091436633,-0.017080503,0.073033534,0.0622066,0.12638633,-0.047536276,0.24491754,-0.13876314,0.1303049,-0.0537535,-0.34123188,0.0022039982,0.13135421,-0.026556764,-0.4381471,0.102410205,0.21303117,0.27288455,0.20874567,-0.107001945,0.104507305,0.17216231,-0.2638691,-0.2576255,-0.56790394,-0.003890087,-0.09322695,0.16904317,0.2377154,-0.4875008,-0.083370544,-0.121118054,0.29113197,-0.2350867,-0.11116497,-0.4563274,-0.45598587,-0.005101889,0.058588967,-0.042308472,-0.17715782,-0.07257386,0.3070319,-0.46694827,0.03289914,-0.3332031,0.14674468,0.06776881,-0.33141106,0.104474075,-0.16347343,-0.026366899,-0.31960782,0.09966081,-0.30111462,-0.066686645,0.40327317,-0.043051332,0.21089773,-0.05688358,-0.4266616,-0.21929151,0.18546371,-0.29267633,0.2261443,0.0754835,-0.27716392,-0.13828202,0.23689103,0.05136546,0.059807874,-0.032495156,-0.2806658
well,-0.010426803,0.08225196,-0.100710936,0.08066965,-0.08577585,0.25167784,-0.09602237,0.15440913,-0.17747971,0.14970069,-0.06451827,-0.0017848003,0.116718546,0.19298044,-0.21158776,-0.10192999,0.1757763,-0.15572076,-0.29244626,0.077668816,0.11197459,-0.15890862,-0.07493917,0.2666635,0.25097054,-0.15494724,-0.08013346,0.074773885,-0.21237826,-0.107026786,-0.050509423,-0.089728445,-0.15697157,-0.016445234,-0.052340377,0.27025774,0.016532375,-0.1539638,0.0835346,0.044766374,0.022005584,-0.10506282,0.14142817,0.07496328,-0.059393015,0.20962664,0.032638103,0.039953962,0.10169663,0.07234007,-0.062438253,-0.2795959,-0.07176644,0.08052415,0.060275257,-0.0096231345,-0.13692625,-0.034079038,-0.16279386,0.014330338,-0.18930213,-0.28774354,-0.20594439,-0.07016033,0.018196257,0.14814703,-0.13754992,-0.19660836,-0.045120534,-0.10284411,0.013849873,-0.23172586,-0.23808391,-0.06829747,-0.10103949,-0.11900357,0.04591408,0.07005596,-0.19042648,-0.19286169,-0.106314786,0.092609175,-0.16909395,0.13067326,-0.2861343,0.15558642,-0.2986697,-0.1729792,-0.13853239,0.08972956,-0.07938642,-0.021267073,0.086991675,-0.12208325,0.14888841,-0.07414091,0.1302066,-0.060459904,-0.08686402,-0.115810506
from,-0.099340715,0.14418304,-0.018032426,0.13261795,-0.33408862,0.2459796,-0.036135335,0.1829455,-0.15771581,0.07733555,-0.095430724,-0.03197732,0.044476073,0.02690037,-0.069915615,0.12092529,0.120129734,-0.14654782,-0.040887285,0.21891804,0.022956062,-0.1670629,-0.08943992,0.20520677,0.21679513,0.052270822,-0.02842031,0.01690535,-0.13129896,-0.15190063,-0.05866687,-0.218825,-0.10975648,0.0030339195,-0.024591876,0.1125832,0.28606087,-0.20277734,0.15391108,0.07803207,0.04832469,0.020715777,0.28074765,-0.09795905,-0.013396205,0.024043486,0.032907326,0.01165065,0.05021166,0.005788269,0.038940232,-0.39128086,-0.2115525,0.144798,0.1193932,-0.045242235,0.08273525,0.19250914,-0.03020769,0.18480188,0.018005107,-0.07915885,-0.29417554,0.12455739,0.11513551,-0.03233632,0.016736584,0.015637778,-0.2512347,-0.041591737,0.06650895,-0.15669233,-0.13194926,-0.11030044,0.060303982,-0.16022049,0.03881485,0.0663293,-0.1529543,-0.22084558,-0.13415425,0.2189821,-0.10269897,-0.044507086,-0.2887894,-0.07628245,-0.26698673,-0.23956437,-0.11493621,0.0052276775,-0.13584606,0.120764375,0.06509183,0.044978414,-0.03752408,0.018961648,0.024451036,0.009238939,-0.08831923,-0.11402175
good,-0.026942309,0.025836878,0.015133916,0.05720822,-0.06318842,0.11889001,-0.014321457,0.097948804,-0.16788149,0.15708935,-0.054651186,0.042091414,0.03525843,0.070963986,-0.06070357,-0.255499,0.10805456,-0.08243766,-0.13590993,0.06160091,0.099705875,-0.02880041,-0.16045116,0.22391745,0.3479222,-0.09782813,-0.08568908,0.06945781,-0.20096171,-0.030079965,-0.017935798,-0.17135887,-0.0075087077,0.02358282,-0.1682601,0.24034132,0.09480599,-0.28519285,0.13828968,0.066858426,0.005622146,0.039568696,0.19316714,-0.011465652,0.0878676,0.02450073,0.013247563,0.10750035,0.23713991,-0.055989888,-0.05478353,-0.40161565,-0.045435637,0.045286458,0.14600888,0.040421296,-0.0488085,-0.048314452,-0.1223832,0.18387562,-0.1078693,-0.054152902,-0.30417925,-0.11330581,0.1089257,0.091211826,-0.051752675,-0.00012269046,-0.058857527,-0.06140035,0.024314245,-0.2348227,-0.187463,-0.09911993,0.06845263,-0.01483396,0.10537246,-0.057541966,-0.25819206,-0.15394531,-0.14052756,-0.034416836,-0.07994553,-0.05212682,-0.33147663,0.00716574,-0.27041724,-0.3035288,-0.12599683,0.07047897,-0.09492908,0.06673449,-0.032418977,-0.040768035,0.06221465,-0.02128242,0.10215623,-0.12650003,-0.15580037,-0.050230645
did,-0.05514821,0.11200526,-0.039523542,0.38140652,0.12260201,0.025748476,0.042973917,-0.17430738,-0.17981954,0.31310052,-0.19352622,-0.0034061945,0.10616425,0.1656005,-0.15538514,-0.18625017,0.09109709,-0.22790504,-0.2618225,0.18689163,0.039608344,-0.11777143,-0.14815992,0.104579456,0.25554034,0.002222167,-0.0013795902,-0.047714163,-0.040584106,-0.14444448,-0.12947251,-0.041539464,-0.14075854,0.012354518,-0.028981414,0.3779777,0.22344697,-0.3015138,-0.057761095,0.053532287,0.11707997,-0.13807282,0.2034201,0.14941393,0.013812725,0.22657107,0.046748932,0.099149674,0.20614772,-0.16121565,-0.018055158,-0.32950288,0.07682348,0.15058005,0.13420092,-0.09669736,-0.14252171,0.018793337,-0.22229777,0.020195317,-0.16402267,-0.3096693,-0.40156034,-0.13688596,-0.008494865,0.06181293,-0.036358055,-0.11673968,0.051191878,0.10006171,-0.15519781,-0.25593978,-0.33932588,0.082631744,-0.06241045,-0.054188807,0.047491368,0.19575047,-0.07799505,-0.27431145,-0.061471812,-0.06979815,0.090995,0.05830415,-0.3275972,0.09267571,-0.17014614,-0.32257032,-0.24203658,-0.14077218,-0.13007617,-0.029517017,0.15750416,-0.14287795,-0.006869377,0.23029293,0.10452699,-0.04532913,-0.20733178,-0.16602443
going,0.1526783,0.16832234,0.0032887866,-0.016734669,-0.27169913,0.0025230453,0.052014127,0.18753657,-0.060894493,0.09061304,-0.19997907,0.15462618,-0.042445228,0.18306392,-0.08697404,-0.2522229,0.12871891,-0.24452287,-0.2218052,-0.04151737,0.11135621,-0.057656083,-0.21598361,0.37682456,0.31404594,-0.21871895,-0.19846347,0.0891654,-0.20096935,-0.06653591,-0.13953334,-0.31440538,-0.2534616,-0.13078505,0.11700453,0.12699702,0.15021268,0.07108002,0.11802622,-0.054734427,-0.02703639,-0.0035115508,0.13545454,0.078673765,-0.14244354,0.29565534,0.090919375,0.21436803,0.13606818,-0.105241105,-0.06487042,-0.12311971,-0.0351835,-0.024354195,-0.07284318,-0.15184708,-0.32360223,-0.31036407,0.05286158,0.0609895,-0.074481755,-0.021937136,-0.39786887,-0.10985555,0.061496135,-0.002776618,-0.083024286,-0.22043741,-0.16026542,0.023932114,0.0034357847,-0.08829666,-0.35824814,-0.1166126,-0.1097414,0.11107601,-0.25244582,-0.28295904,-0.080398776,-0.46952718,-0.26725566,-0.24264255,-0.077767245,0.25293225,-0.022044484,0.29409865,-0.11002967,-0.29554075,-0.053038567,-0.050531577,-0.19407341,0.21610591,0.28488103,-0.12097849,0.06553022,-0.07479875,0.16590308,0.082952574,-0.18978514,-0.2282942
too,-0.061531886,0.07478361,-0.05559772,0.051771544,-0.12753874,-0.017411262,-0.08522149,0.07805751,-0.12547839,0.16531242,-0.17232645,0.070490964,0.14197095,0.10750703,-0.1743871,-0.21252349,0.194377,-0.13301268,-0.23362087,-0.011142803,0.07927486,0.038647924,-0.16807066,0.18759693,0.33640122,-0.087675445,-0.105079845,0.06529085,-0.15121414,-0.035381928,-0.1272538,-0.17693944,-0.12920131,0.0010475054,-0.04748299,0.2336624,0.02992452,-0.2331312,0.12003197,0.07283538,-0.044728905,-0.113383226,0.14613539,0.016386682,0.0103615625,0.10880357,0.06441522,0.085184254,0.19819567,-0.041470032,-0.08368374,-0.25545493,-0.00011629455,-0.06352926,0.06316942,0.041235287,-0.09478312,-0.12504505,-0.05409167,0.16386051,-0.17457075,-0.124276094,-0.29100832,-0.1335322,0.059187412,0.0987226,-0.08643045,-0.12084631,-0.058828887,0.0366723,-0.06656088,-0.13368408,-0.30245167,-0.07378749,-0.042512123,-0.096846916,0.01765343,-0.11362632,-0.15462472,-0.3121117,-0.2396624,-0.109512664,-0.06190031,0.11286176,-0.17587873,0.13167123,-0.1925156,-0.29493013,-0.105755836,0.042025276,-0.04853485,0.11782029,0.113773696,-0.14480555,-0.0014712866,0.001154924,0.10384858,-0.03800108,-0.09150991,-0.13010423
yes,-0.10961143,0.07355741,0.004890067,0.06625387,-0.15177818,0.06981534,-0.069616355,0.11685314,-0.14940952,0.12665348,-0.09709389,0.05042553,0.07895663,0.05135681,-0.10430488,-0.08653614,0.17316362,-0.09629152,-0.09692446,0.11045682,0.053792495,-0.049577184,-0.15914583,0.15870918,0.31495458,-0.02022863,-0.053682223,0.053904463,-0.17041564,-0.13349067,-0.095494695,-0.20163621,-0.03100953,0.03216055,-0.06154863,0.18963309,0.124716535,-0.2332882,0.10037851,0.10216554,-0.08254786,0.029141678,0.18527488,-0.033831708,0.00662739,0.04090184,0.049718183,0.021217704,0.13487177,-0.010814441,-0.0064407354,-0.3036901,-0.105381556,-0.023753986,0.096936196,0.0030082362,0.028498031,0.0015969567,-0.08697994,0.2128201,-0.08299911,-0.09239745,-0.36330765,0.021024475,0.053433906,0.08594718,-0.0273486,0.026527084,-0.1428787,-0.019323071,0.03610363,-0.17371003,-0.20364316,-0.0922984,0.096835315,-0.089331575,0.05495803,-0.0045177643,-0.20307846,-0.23164432,-0.12028068,0.003166333,-0.072680034,0.0063285637,-0.27893314,0.009587273,-0.17969608,-0.2774467,-0.08188124,0.052888907,-0.11522987,0.13428514,0.051926017,-0.118599065,0.008598654,-0.024511527,0.036429685,-0.028890915,-0.12761319,-0.08157137
ve,0.18511778,-0.1832537,0.1070828,0.059933975,-0.25656676,0.23512997,-0.09232748,0.24606836,-0.23724066,0.15193024,0.049707413,0.12860362,-0.032123145,0.13419895,-0.39347228,-0.20745854,0.5081736,-0.18703987,-0.22498263,0.12882374,0.32445094,-0.049054734,0.029037217,0.14173606,0.17335546,-0.053119157,-0.04447512,0.07093984,-0.17142323,-0.26853397,0.07648574,-0.32039776,0.08121491,-0.03089783,-0.27098897,0.3157962,0.2829198,-0.2973168,0.07220066,0.09082389,-0.13396092,0.19429174,0.15342572,-0.0068758135,-0.040717617,0.12149661,-0.022009699,0.15656167,0.09915829,-0.14284419,-0.03141329,-0.30765,-0.0012570044,-0.06024012,0.24636258,0.022714162,-0.08977191,0.09463089,0.13733183,0.15047197,-0.034271546,0.003219912,-0.41398445,-0.05928902,0.1318221,0.35817817,-0.22279063,0.012769597,0.03920721,0.05650925,-0.1296744,0.0066743903,0.10167901,-0.15781043,-0.03056156,-0.017800024,0.1278004,-0.11054327,-0.08074044,-0.18990682,-0.20142467,-0.07586096,-0.03185928,0.061037816,-0.5342447,-0.23170115,0.06485358,-0.3165408,-0.3365315,0.13217446,-0.43707097,-0.061852537,-0.12540343,-0.25387844,0.22046381,-0.002578941,-0.07989131,-0.054001447,0.07342169,-0.14498836
see,-0.0272781,0.05603283,-0.04363721,0.17991805,-0.036915764,0.021931762,-0.10627343,-0.07500669,-0.28580737,0.18229339,-0.20426017,0.08873586,0.16316831,0.29011926,-0.22473869,-0.16093023,0.13649304,-0.23719367,-0.37135038,0.102012716,0.042773,-0.15297584,-0.025588902,0.1752398,0.2395381,-0.1300601,-0.1500105,-0.0840461,-0.1045853,-0.014282733,-0.14117375,-0.053501308,-0.22314483,0.03440697,0.005665771,0.27547884,0.035866484,-0.26465836,0.0537431,0.11503929,0.105638936,-0.18362953,0.15131299,0.07302932,0.038520724,0.20358342,0.06321169,0.062175795,0.104069166,-0.07727897,-0.06429823,-0.3348152,0.060153536,0.083766855,0.12357636,-0.0059571494,-0.23595425,-0.031520106,-0.17058569,0.099172436,-0.14257632,-0.23520356,-0.29091012,-0.138113,-0.00072522945,0.11491093,-0.01737415,-0.2745859,0.037936985,0.010377255,-0.12904908,-0.16056995,-0.33328912,-0.022901207,-0.087611325,-0.09897035,0.038376,0.09240045,-0.04493688,-0.24755314,-0.049781814,-0.016051015,-0.02286384,0.14570507,-0.16732651,0.20747158,-0.1496526,-0.24418713,-0.16418383,-0.003170453,-0.09182047,0.045255657,0.11390556,-0.16130151,0.0814551,0.1086354,0.06799688,-0.028895259,-0.08044455,-0.12193591
how,0.057038095,0.04328241,-0.0059875147,0.17351653,-0.05734863,0.073277056,0.025456956,0.05661093,-0.13232653,0.19052072,-0.17939353,0.03079174,0.11602098,0.21122149,-0.18901871,-0.1811781,0.13493207,-0.1799898,-0.27182546,0.13047707,0.1504932,-0.075200476,-0.07018876,0.15728045,0.24459925,-0.06591377,-0.029444514,0.009659388,-0.12883946,0.019274844,0.035755426,-0.15174533,-0.06397412,0.08097289,-0.03814147,0.24838121,-0.0125823235,-0.24032877,0.14957371,0.020963158,0.08068414,-0.10168058,0.1830011,0.07577357,0.04854799,0.03973993,-0.007292684,0.113240056,0.33379143,-0.20097896,0.038188085,-0.34745377,0.059642326,0.013904638,0.16893171,-0.066208936,-0.10714806,-0.0417508,0.047691982,0.12067181,-0.15717901,-0.34270564,-0.24192937,-0.2526133,0.13466047,0.098561585,-0.055913523,-0.17349115,0.1456336,-0.09337332,-0.10837805,-0.18912438,-0.32422727,-0.09034446,0.052407246,-0.0472977,0.15177758,0.082219705,-0.2768783,-0.14981686,-0.039425585,-0.06839623,-0.11681013,0.055577055,-0.30771947,0.14819926,-0.2861705,-0.39943177,-0.26392782,0.09600484,-0.083477646,-0.043822836,0.0017986527,-0.1503724,0.11926703,0.047809284,0.15850121,-0.06660508,-0.10719612,-0.08689431
us,-0.02365197,0.04137677,-0.10251646,0.04261023,-0.32743677,0.14362176,-0.114577614,0.1000236,-0.3067013,-0.09277059,-0.18066703,-0.08692719,0.257323,0.34608862,-0.21691838,-0.0061100684,0.089449264,-0.13017285,-0.20402597,0.07028115,0.10486266,-0.16442081,0.03206876,0.23128137,0.12785926,0.13665855,-0.2710665,0.0062207496,-0.2372611,-0.0021301887,-0.16928126,-0.06001336,-0.23975597,-0.034763426,0.03908594,0.042933784,0.042669,-0.13300247,-0.088537656,0.15603115,0.04658249,-0.10542478,0.3726353,-0.037159897,-0.068288505,0.18183757,0.043122146,0.080020525,-0.038157262,0.15925105,-0.1914223,-0.41640216,-0.16810572,0.13791443,0.035952896,-0.1208019,-0.067250624,0.13311414,-0.27004084,0.13653778,-0.015142468,-0.07579715,-0.35530436,0.09834447,0.05905601,0.046632934,0.063548885,-0.20101282,-0.2781558,0.017206896,-0.035531167,-0.19193272,-0.14941186,-0.0036416235,-0.089627795,-0.22643366,-0.068231754,0.034982573,-0.06557401,-0.33828112,0.015430411,0.10413159,-0.09406489,0.18869598,-0.16839515,0.14078337,-0.16566256,-0.17594317,-0.04330059,0.07919648,-0.07090012,0.2361725,0.119166315,-0.031687148,0.02352139,0.095699005,-0.038225636,0.0658007,0.06705756,-0.1129916
our,-0.027210133,-0.055173986,-0.028006451,-0.018365687,-0.38845685,0.2904977,-0.04199359,0.28690153,-0.2720183,-0.11972379,-0.022394437,-0.09199269,0.14761049,0.22968061,-0.17455658,0.05120635,0.110780686,-0.19351494,-0.19608831,0.110870436,0.104786396,-0.2431919,0.006143665,0.24870673,0.11407975,0.08440518,-0.14685501,0.116026044,-0.13862495,-0.11888246,-0.011806283,-0.26206753,-0.12749757,-0.026925966,-0.018221013,-0.009016526,0.12341287,-0.16691427,0.03601729,0.06388812,0.06402813,0.034229204,0.26818132,-0.14966366,-0.017084835,0.1127718,0.013323536,0.13389148,0.03216488,0.13069502,-0.07581343,-0.42085952,-0.16006665,0.19686256,0.13506338,-0.13113384,0.020936063,0.10811162,-0.14999741,0.074566916,-0.06307923,-0.084762074,-0.31284878,0.1302407,0.15930912,-0.017684942,0.05973675,-0.11668233,-0.21442004,-0.089550756,0.059446752,-0.19965146,-0.066089414,-0.13835731,-0.062254243,-0.15994117,-0.016579023,-0.112292945,-0.15193358,-0.20932287,-0.021542419,0.12324326,-0.16187581,0.09134099,-0.24065748,0.07684431,-0.17455831,-0.2459786,-0.060574714,0.06437299,-0.11693896,0.2269816,0.04232573,0.00095947634,0.08432826,-0.08284428,0.0012477792,0.027089642,0.017423337,-0.08863396
were,0.06977038,0.103458665,0.081788674,0.07710887,-0.21129239,0.4242211,0.084849305,0.20434774,-0.13047785,0.06227443,0.014693694,-0.031348154,0.014631985,0.13552062,-0.21744987,0.10611332,0.24954239,-0.24263667,-0.10818203,0.31968948,0.15058924,-0.3081179,-0.04364169,0.3501691,0.17268673,-0.052167717,0.102550656,0.12529469,-0.18292667,-0.30533218,0.12128187,-0.25183,-0.028285563,-0.0405096,-0.10143301,0.18598098,0.31940508,-0.051161543,0.11280526,-0.061150625,0.020009894,0.11319699,0.25332516,0.037056364,-0.11062071,0.1544136,-0.081780694,0.1505379,0.14110892,0.09397541,0.14595097,-0.36647347,-0.087438375,0.16684736,0.14646988,-0.14182752,-0.06267022,0.12437746,0.06609486,-0.0999679,-0.025257096,-0.13020931,-0.3314844,0.021603964,0.10974508,0.055045754,-0.02040739,0.12204136,-0.26148495,-0.026116038,0.09355997,-0.16818173,-0.07780025,-0.22402385,0.034807604,0.052611265,0.090245776,0.19233006,-0.14613599,-0.0676931,-0.040737607,0.10934679,-0.2491114,0.10221506,-0.38851804,-0.14356358,-0.33630952,-0.19761392,-0.11772184,0.05751143,-0.28042793,-0.056440417,0.0245423,-0.06429253,0.19206391,-0.075258315,0.072865315,-0.040326808,-0.15098946,-0.19506733
about,0.015100546,0.15932243,0.09240099,0.2329898,0.10207817,0.070740245,0.15151797,-0.020957578,-0.17821123,0.16587852,-0.22416568,0.013596656,0.12944454,0.24586438,-0.20456354,-0.16326831,0.036600713,-0.26488924,-0.2628317,0.252175,0.050332073,-0.022928374,-0.16584013,0.1309173,0.28261608,-0.084865555,0.03242391,0.06391029,-0.050356973,-0.16334866,0.022020109,-0.030685386,-0.012922515,0.1523606,0.06822251,0.32528803,0.03046922,-0.14333886,0.012360122,-0.049054213,0.043903608,-0.026534213,0.23420727,0.13516624,0.062593296,0.11529995,0.08847885,0.0018145908,0.32815853,-0.16205485,0.06546674,-0.3402698,0.11327583,0.014710197,0.086873256,-0.19192134,-0.17581397,-7.652945e-05,-0.08087403,0.07577278,-0.0514598,-0.25048816,-0.4755864,-0.10770351,0.022811959,0.13808227,-0.04516818,0.025516778,0.14231832,-0.08100652,-0.06848799,-0.20501179,-0.42143062,-0.06378898,0.14155358,-0.0066166595,0.23208283,0.2784807,-0.16443911,-0.13260506,0.017980801,-0.13893908,0.039813757,0.034039393,-0.45009282,0.10547056,-0.27404073,-0.42095065,-0.2004184,-0.037235513,-0.276432,-0.046266858,0.023007838,-0.22601639,0.10540678,0.14639024,0.14040777,-0.07016365,-0.19134286,-0.10023104
look,-0.022193033,-0.0024418717,0.006457851,0.05132942,-0.086351454,-0.008859037,-0.073079295,0.02144829,-0.1925733,0.13259135,-0.15698488,0.010936174,0.07854608,0.09298693,-0.035693116,-0.1689612,0.047718976,-0.06695734,-0.08984604,0.027587667,0.009711077,0.04097697,-0.14828148,0.19037902,0.33823124,-0.018924331,-0.16555177,-0.078388885,-0.07439191,0.035240933,-0.11109445,-0.16479442,-0.08177674,-0.009595592,-0.11102646,0.15810971,0.15238757,-0.31745398,0.16492936,0.13742688,0.028237611,-0.02663424,0.2518503,-0.0455527,0.05913131,0.094424345,-0.0050586574,0.08910079,0.20414074,-0.064506434,-0.12134526,-0.3958858,-0.067893445,0.075043544,0.09911006,0.07288812,-0.053233664,0.077141955,-0.08448622,0.32180268,-0.011987365,-0.07781254,-0.36123982,-0.10855326,0.11554511,0.051450457,0.019178225,-0.03742713,-0.07781594,0.027418353,-0.032044556,-0.07749851,-0.23401272,-0.053064425,0.031637527,-0.16132222,0.07796304,-0.10529984,-0.13970822,-0.2070382,-0.20058516,-0.08025039,-0.064290285,0.01904343,-0.23620112,-0.014526854,-0.15773524,-0.3497166,-0.19321488,0.07198546,-0.092206076,0.1750843,0.07987341,0.03529503,-0.05760624,0.06972559,0.09093256,-0.09064056,-0.17116836,-0.119596995
them,0.07394163,0.0059747337,0.007938526,0.07841392,-0.28858355,0.20602137,-0.05398613,0.17874566,-0.2928733,-0.06854272,-0.13435405,-0.018201942,0.15989214,0.3447464,-0.2345734,-0.03358476,0.13522217,-0.22988033,-0.24486269,0.17708533,0.15235993,-0.21234374,0.022753261,0.22102588,0.15084238,0.06374268,-0.1160439,0.05263193,-0.13280013,-0.09254856,-0.090859085,-0.18396167,-0.23125365,-0.048685513,0.06379885,-0.01545695,0.047786735,-0.07788787,-0.0062815435,0.036780555,0.026032792,-0.12136711,0.21574503,0.006113996,-0.06190901,0.23407856,0.06010591,0.08995826,0.044860214,0.021983476,-0.10273259,-0.31221077,-0.07331228,0.04762409,0.020460514,-0.24587287,-0.2032128,0.038329285,-0.048489165,0.10394102,-0.019500082,-0.17939378,-0.38387856,0.02944402,0.06654543,0.042805962,-0.0050376025,-0.21724407,-0.124317445,-0.008566788,-0.09370457,-0.16557732,-0.1538816,-0.03965409,-0.05945064,-0.09689533,0.0014733251,-0.016374996,-0.08199113,-0.31496122,-0.007904522,0.06592897,-0.07188443,0.27994278,-0.14384028,0.15008858,-0.15495335,-0.2476992,-0.097288355,0.1029087,-0.096944705,0.17745946,0.18873572,-0.109962195,0.106125824,0.056672227,0.001706827,0.012739333,-0.005184501,-0.18701288
please,0.04941336,-0.06095274,-0.15333907,0.052528456,-0.19262488,-0.08738665,-0.20221464,-0.011583872,-0.2226977,0.11338989,-0.27530184,0.003436613,0.24322714,0.27597862,-0.29317257,-0.18506514,0.13600348,-0.102482826,-0.3213709,-0.048684876,0.049736958,-0.0022985602,-0.09869524,0.088017024,0.3197772,0.096250735,-0.32230496,0.04411933,-0.19957098,-0.07027591,-0.35273597,-0.056150366,-0.29408577,-0.07416374,-0.039967824,0.0978786,0.003015307,-0.17853673,-0.009976522,0.26222548,-0.074635185,-0.29709888,0.18104748,0.0068108104,-0.044899773,0.17800677,0.17032582,0.07164537,0.01954179,0.031311806,-0.21614479,-0.31387797,-0.112160385,-0.01350567,-0.02726533,0.011228686,-0.1919678,-0.1802613,-0.24788254,0.20426343,-0.12506877,-0.078944154,-0.47546056,0.01668537,-0.041178767,0.129536,0.0012666953,-0.23977007,-0.16831169,0.1282246,-0.1083056,-0.15693265,-0.20633115,0.11525995,-0.182487,-0.25598955,-0.08698711,-0.037401542,-0.024963131,-0.52156395,-0.0720358,-0.15573214,-0.0029563997,0.24739884,-0.09095258,0.24033588,0.07788974,-0.23328789,-0.08233355,0.085771255,-0.0673492,0.2803162,0.2992427,-0.22692293,-0.11883587,0.11481001,0.0047209067,0.073582955,0.025768716,-0.24169834
take,0.00067658146,0.008459624,-0.024477508,0.015521978,-0.24904168,-0.0117577715,-0.16180971,0.01361736,-0.2846136,0.06468182,-0.2817923,0.20621975,0.10765154,0.21403666,-0.2442066,-0.07714874,0.15745005,-0.13838112,-0.25137576,0.11484232,-0.04438334,-0.056097608,-0.1186104,0.13279949,0.40463188,0.008476362,-0.27751696,0.034127224,-0.1732564,-0.07512218,-0.26532805,-0.06835102,-0.17231764,-0.030787364,0.027396567,0.046979003,0.08442467,-0.20791295,0.10678972,0.21431302,-0.12115796,-0.20505342,0.22026998,0.03396718,-0.07784638,0.035825755,0.057107817,0.044497427,-0.013626181,-0.08598909,-0.15757248,-0.37756798,-0.15445438,-0.011067046,0.0006276196,0.0822237,-0.18595079,-0.064155616,-0.1352065,0.26883253,0.0001530967,-0.000263733,-0.39585727,-0.03973296,-0.055504624,0.07997208,0.06473242,-0.1811832,-0.17973888,0.13498911,-0.08806585,-0.030001055,-0.16074438,-0.021796906,-0.06358304,-0.25631544,-0.048362188,-0.041967317,0.006089478,-0.43321016,-0.13397332,-0.12608178,-0.030639486,0.20476651,-0.031456314,0.1703083,-0.01900729,-0.18128647,-0.042568065,0.057359178,-0.20189072,0.24444087,0.18732677,-0.20312099,-0.066358395,0.041751157,-0.027201124,0.114675194,0.06634649,-0.2213233
know,0.034506608,0.008384025,0.036825012,0.36557007,0.14892398,0.09156507,0.12591754,-0.13027959,-0.29121545,0.20016225,-0.2600002,0.12209663,0.15331103,0.42348012,-0.27871075,-0.1422741,0.070135,-0.33130145,-0.51902866,0.2518208,0.05337874,-0.15757217,-0.06577992,0.11254875,0.21014854,-0.14875394,0.079444826,0.0072211255,-0.034825172,-0.1570886,0.01079145,-0.076261975,-0.10129539,0.07466866,0.068575986,0.2960048,-0.06616479,-0.16903503,0.013567222,-0.014585218,0.11050847,-0.13745697,0.20494565,0.15226837,0.06802526,0.14114083,0.12819085,0.06217182,0.3055186,-0.22319092,0.023932785,-0.43006286,0.21571897,0.019482756,0.11739844,-0.2050852,-0.2805475,-0.0966605,0.032636523,-0.015683023,-0.15924768,-0.45406538,-0.3964456,-0.27879742,-0.031255,0.10724483,0.051019188,-0.1464848,0.16905639,-0.006915114,-0.11052681,-0.26276085,-0.43592,-0.08695866,-0.018856134,-0.0005282019,0.11689154,0.30629718,-0.11421306,-0.12572017,0.04736664,-0.15719001,-0.025286453,0.16223009,-0.25821882,0.22614372,-0.22559154,-0.4335464,-0.21603046,-0.018709105,-0.20225652,-0.064765856,0.10439792,-0.21501242,0.098281585,0.13965835,0.12273292,-0.06547018,-0.17328987,-0.1624574
time,-0.03503165,0.10170693,0.1046821,0.003389621,-0.16563569,0.19441366,-0.058438,0.20627722,-0.23185165,0.13335478,-0.058779396,-0.0091914395,0.04143201,0.12422993,-0.14735675,-0.17743675,0.1438975,-0.19862223,-0.18069036,0.18375617,0.087678395,-0.13050772,-0.018510183,0.19325732,0.22542997,-0.0834817,-0.07389596,0.03181817,-0.18509051,-0.2102823,-0.05353958,-0.19470605,0.06961121,0.025938844,-0.095929,0.1718339,0.12688,-0.15936494,0.08014679,0.105132475,-0.038662743,0.05798846,0.23765767,0.02272198,0.020533683,-0.026129918,0.11405305,0.073852874,0.107896514,0.0603316,-0.031725932,-0.37334883,-0.080951855,0.012412416,0.13978238,-0.10463561,-0.01079655,0.016351888,-0.03208951,0.16327594,0.021819752,-0.02769573,-0.42445347,0.0014771394,0.0637912,0.15463232,-0.098108366,0.116156906,-0.12394451,-0.11404112,0.096458495,-0.16141261,-0.16026938,-0.18568517,0.16688885,-0.025313225,0.14688885,0.053982966,-0.19642973,-0.15225376,-0.027921563,0.06487718,-0.08033114,-0.005719524,-0.40363878,-0.089803375,-0.1635325,-0.28386042,-0.081335925,0.06450386,-0.25687176,0.06253296,-0.0062555396,-0.07507185,0.029585235,-0.039687924,0.04185194,-0.018446114,-0.10963412,-0.06669381
want,0.015994512,0.017181456,-0.026770972,0.23035043,-0.047686014,-0.027119258,-0.016913822,-0.13197547,-0.3153505,0.1528527,-0.29078716,0.13953929,0.21212064,0.3920402,-0.3648296,-0.06288249,0.037045904,-0.27746955,-0.5233987,0.14185706,-0.00238296,-0.15913174,-0.03205627,0.13106857,0.21487242,-0.080307126,-0.13314535,0.064117305,-0.09310126,-0.1147314,-0.1529214,-0.023205614,-0.12985049,-0.027243508,0.11337474,0.14577669,-0.03650936,-0.10685235,0.014238879,0.08349713,0.13226752,-0.2685986,0.19174096,0.10659814,0.027692573,0.15941806,0.17667894,0.0038086704,0.05157726,-0.108671695,-0.060678624,-0.48144427,0.056190792,0.065320164,0.07299432,-0.10016995,-0.30564383,-0.09878011,-0.07171459,0.01837117,-0.12208844,-0.24583133,-0.43354973,-0.22546932,-0.070028625,0.09966346,0.06898679,-0.22073239,0.014195695,0.056337617,-0.055931907,-0.106026955,-0.3557109,-0.039410144,-0.15514714,-0.13553491,-0.006848792,0.09549741,-0.0024585524,-0.33003107,-0.01662469,-0.21053503,0.03144599,0.27147955,-0.11285288,0.3247396,-0.09753757,-0.36195815,-0.16225703,-0.05156362,-0.22404642,0.07488199,0.09398475,-0.21098901,-0.011237245,0.1441149,0.01762774,0.059097636,-0.041301202,-0.10509432
an,-0.209543,0.13996221,0.055647247,0.20465505,-0.18377826,0.2767487,-0.06334869,0.17281924,-0.17629752,0.14191775,0.011041284,0.030038722,0.133371,0.13229465,-0.10775094,0.015702527,0.09448247,-0.14798921,-0.044805128,0.20963186,0.040268242,-0.1487244,-0.16568571,0.245151,0.32759964,-0.04958448,0.009726105,0.07384583,-0.124862574,-0.21881181,0.055767093,-0.23012955,0.012252597,0.07679452,-0.09335225,0.17504604,0.14796247,-0.16290472,0.09164294,0.09435482,-0.027805423,0.13996801,0.23191272,-0.015704637,0.026953332,-0.029616402,0.052970883,0.035018194,0.10398681,0.108897544,0.10204764,-0.50392944,-0.12702262,0.042126033,0.11867815,-0.079221204,0.10852104,0.15220472,-0.0767353,0.12514736,-0.028162805,-0.082730606,-0.3095979,0.038071983,-0.012836885,0.062123872,0.012593378,0.10454297,-0.2752877,-0.08489792,0.1808045,-0.33098024,-0.25110403,-0.1995005,0.16253944,-0.05224191,0.18837488,0.14049235,-0.22675839,-0.06679945,-0.037767462,0.10664213,-0.13754112,-0.13135913,-0.3885911,-0.11054625,-0.3468419,-0.1677389,0.013981868,0.04537711,-0.24727058,0.06678304,-0.08888848,0.0032802306,0.019387774,0.017740099,0.034837153,-0.08017753,-0.18203233,-0.04989511
hey,0.22473128,-0.12967928,-0.1287241,-0.06629719,-0.14695041,-0.07664525,-0.17687294,0.052893348,-0.11936927,0.17027245,-0.17558132,-0.036054906,0.043707047,0.07634233,-0.11549314,-0.2544412,0.20023614,-0.088596575,-0.14500505,-0.078865476,0.08050173,0.0115909325,-0.08063298,0.18495531,0.32981825,0.06889553,-0.22994947,-0.071623065,-0.18812802,0.18881983,-0.19057925,-0.32566217,-0.26065916,-0.12595099,-0.12925039,0.26193807,0.18166707,-0.4066012,0.32861915,0.116150826,0.10591509,-0.13542932,0.18401507,-0.16091914,0.034614444,0.2730669,-0.101363465,0.13426587,0.32207516,-0.26241776,-0.11871827,-0.15990509,-0.0056846403,0.15607916,0.10440505,0.18794182,-0.19307683,-0.15243877,-0.052689638,0.3255988,-0.18657392,0.02940167,-0.3411357,-0.2341918,0.2609407,0.026273308,-0.12944828,-0.26263696,0.11930036,0.049425777,-0.1562108,-0.0011564716,-0.157409,-0.10189449,-0.06824455,-0.11733657,-0.09873292,-0.32518977,-0.13655864,-0.3285105,-0.28678116,-0.16930944,-0.14068592,0.19116376,-0.011397521,0.10094269,-0.10300973,-0.3405755,-0.2584398,0.046678454,0.123180814,0.15533145,0.30471766,-0.08698485,-0.013581647,0.018470887,0.20297948,-0.1203139,-0.11511363,-0.30840266
